elements: [Zn]
E0: [0]
deltaSplineBins: 0.001
embeddings:
  0: {ndensity: 2, FS_parameters: [1, 1, 1, 0.5], npoti: FinnisSinclairShiftedScaled, rho_core_cutoff: 100000, drho_core_cutoff: 250}
bonds:
  [0, 0]: {nradmax: 13, lmax: 4, nradbasemax: 15, radbasename: SBessel, radparameters: [5.25], radcoefficients: [[[1.1522057301756339, -0.29898258134798272, 0.22917651784423748, -0.05669399721185945, -0.021187890457901579, 0.12185657127399725, 0.044293054101854447, -0.076872089398922414, 0.031502704054688024, 0.0097731457529618444, -0.01043681190362843, 0.026470121976838512, 0.0031936419214541362, -0.0031200233529280344, -0.0019135251302525452], [1.1106655994392085, -0.54780206772833018, 0.20867368273069731, -0.041015892277351154, 0.0087712416096712171, 0.047905635209067744, -0.049454073991748095, 0.079831984690951971, -0.12411461104162554, 0.10851505061462571, -0.094545623377539884, 0.067260714080893722, -0.039459400127641556, 0.025319303975578206, -0.010536680485720979], [1.138017383206035, -0.49605129925456032, 0.248625342079967, -0.10034045992377756, 0.0034457025887162556, 0.13862090450643469, -0.088620053630948617, 0.14131268736224345, -0.17881449617794279, 0.14836267517710003, -0.11990666960207723, 0.076723889209727072, -0.045632341513675657, 0.011843913945130298, -0.0023314798726753213], [0.80199141309015187, -0.47388489030055553, 0.29678810719385179, -0.094861779051753858, 0.025746945990263281, 0.069166917747051054, -0.10710434227717297, 0.23393421457565114, -0.29604420466706116, 0.25836633395514252, -0.18909251311102665, 0.1200589890342028, -0.074578764926427676, 0.01896154928867614, -0.012377453568785226], [0.91836442504876592, 0.10889653118503699, 0.4339627722634572, -0.02953416845701768, 0.086959137381114535, 0.092322809207968107, -0.081365448231253579, 0.2265939583446889, -0.11985019127379774, 0.058346819212901628, -0.025812018807357742, 0.0027844788545235023, 0.014729282953030763, -0.033814827429594005, 0.03260658867332502]], [[-0.0952544654272071, 0.97348261864307972, -0.082896230429642892, 0.045472229501603657, 0.027370797538980026, 0.15011412202830046, -0.12020359181596219, 0.031759343585858274, -0.074960852091888769, 0.11807788024820995, -0.091264965467861503, 0.092666441667465752, -0.042567575770505461, 0.021095393289209216, -0.0078481591811733146], [-0.15529421359854567, 0.83917025644143761, -0.2846777566192204, -0.043394442961413357, 0.075709068389106085, 0.031700177306788833, -0.10010231517946573, 0.20008524188693722, -0.20707457499786061, 0.14700084231555377, -0.11277870816848777, 0.045962234926656534, -0.028546686496327894, -0.00125864025395368, 0.0027610568808442192], [-0.15799013851008242, 1.0621551190428844, -0.30348440403964527, -0.15224735443715356, 0.1587952743400449, 0.069638611613889151, -0.0842498298613929, 0.070474090067159767, 0.013936840209463296, 0.007536821652545724, 0.034810223382647644, -0.039483323806358279, 0.030873767498533145, -0.029004160841964964, 0.0267146770349161], [-0.12735319912078052, 0.71197024049544233, -0.10352434447959027, -0.19566438214961127, -0.19476456747895779, 0.23462646746837934, -0.073400051099285712, -0.094917735240031512, 0.01023804107940322, -0.13148397201178916, 0.089791377922586277, -0.074759384475773308, 0.053834736429774689, -0.019095747713788417, -0.0090289645713181061], [-0.042893162091322344, 0.99293502625522689, -0.078727247098456701, 0.041964059015920513, 0.032416170564811574, 0.029017814222852916, -0.020407266792472876, 0.018648416487991069, 0.02442920215115656, -0.30236900074865763, 0.14098875126791999, -0.032300114432469107, 0.11377927000310922, 0.053176103182534282, 0.025419967174485893]], [[0.24350103968237852, -0.28168868139444142, 0.91646317920266018, -0.21749157914958878, 0.187918737533147, -0.02130620295007855, 0.082609682531097045, -0.084832667862470901, -0.032085875614167064, 0.10753333857960633, -0.087525765107212661, 0.090320977461484986, -0.045000646274240649, 0.017975347814483896, -0.0035178983002371149], [0.068691634106664679, 0.0081742630209374056, 0.84620810284887871, -0.54652063577642629, 0.048220969451344194, 0.10410330324609147, -0.070496322722502197, -0.060339844601363928, -0.049409612079901542, 0.025752708538659939, -0.05067292948996701, 0.0080918188403461908, -0.010110891957267065, -0.011161073172356182, 0.011046076890741122], [0.23342487106625859, -0.087047706703353073, 0.87685457884937479, -0.056592451015539808, -0.18857826882722628, 0.085656337877462532, -0.038338797710168307, -0.28186129222434042, 0.18037248353104901, -0.16572189179002442, 0.1308230919286538, -0.088499589247625715, 0.059918253486645652, -0.030082780860706385, 0.011239955091537211], [-0.11833079882487335, -0.1798629423275025, 0.90801942449020512, -0.26803074590289688, -0.18969814374510607, 0.033320368641291807, 0.0028154584013134862, -0.043800366088033262, -0.13395753268389923, -0.071843585539044588, 0.011908751931760287, -0.042668858690604286, 0.044367358685248791, -0.017910817565651448, -0.015332157311711555], [-0.024845949689848029, -0.057408772861479995, 0.98651052964059316, -0.078678398372394293, 0.12421743220346008, -0.036289921728444585, -0.16085196180008973, 0.14683324496586858, -0.14968534652430743, -0.051427252362944362, -0.0024556334944048743, -0.11811590850830116, 0.083861844490358897, 0.0058189476588193225, -0.025026872205863873]], [[0.19362440071227291, 0.13465110397552399, -0.12621938652623582, 0.91068478603736669, -0.32069749878232795, 0.18602804816971416, 0.065839222231276848, 0.14033925852645371, -0.12382366812185781, 0.18165328270984449, -0.07166559796592234, 0.056760962327041739, -0.016080973599657357, 0.0058252056549518236, 0.013375905351546756], [0.089709799090043854, -0.032881012609012827, -0.013934913398667753, 0.79519862590380885, -0.31140921395213433, 0.28405057073612311, 0.033738591392557145, -0.13729977606813484, -0.095947111197205032, -0.039798959731961785, 0.015406438986149774, -0.039676962506027091, 0.048906366900706315, -0.02826811465708895, 0.011910073638233331], [0.09032488854434069, -0.059455340894158666, -0.11492566815278682, 0.82055373021473255, -0.31905452681036556, -0.099313392616379961, -0.16818969855687835, 0.13480331913845481, 0.074906545463986424, -0.094313786296991359, 0.061770840604839325, -0.0080355503649729258, 0.01065681979680093, 0.034254596202914836, -0.021123627834528837], [0.057488830624664193, 0.053362482308546316, -0.032463270800632639, 0.8297760802499955, -0.046239621605081112, -0.12884331671209842, -0.27719101881120362, 0.28783432075208976, 0.22329983557559419, -0.10228845181620558, 0.072140630620291385, -0.044584494568345179, 0.035249864263086815, 0.038528619590980799, 0.050548870570882358], [0.0079821052715058922, 0.016454488942764987, 0.0065620538167703493, 0.96999183958791024, -0.016884389373966056, 0.19619430718926714, 0.13309103051301011, -0.0080323642608669636, 0.095783121513783542, 0.099871943142792852, 0.077089248456071874, -0.17731853217657118, 0.014583605242899509, -0.15784268903978615, -0.065996343115821574]], [[-0.13193926631885702, 0.28037360529998662, 0.23937935349762765, -0.30919462476441728, 0.82335383297287845, -0.48508564308055363, 0.10135806888919847, 0.13580031914497909, 0.16912295309269931, 0.08669204883919511, 0.037268097060733675, 0.033255766837914827, -0.039985036138531736, 0.052474133090650389, -0.029013271381848338], [0.099467377072964033, 0.22247098798282483, -0.036654016521345492, -0.18817698359115495, 0.86616507548497912, -0.13685026492937102, 0.047254534290770277, -0.28733830602140109, -0.062347548590533722, 0.013806642698011871, 0.041410609576452609, 0.027910934037106105, 0.019747814827606652, 0.022967046721903077, 0.040251607533040336], [0.01008751609354578, -0.091388498693985118, -0.1802734179775787, -0.3000687939259763, 0.72490162583022844, -0.42017305452724713, -0.38775173067543517, 0.038088697735852065, 0.29055569117859847, -0.14652865099842097, 0.1014038380589232, -0.067555872233910755, 0.058760026710623074, 0.04274635808343473, -0.016407162890408323], [-0.021827852686648601, -0.11656469990261394, 0.015993945558975022, -0.073423572699880771, 0.68902065183976291, -0.46289510044109117, -0.49742931482628999, 0.2436780632944319, 0.47069869716046808, -0.16773401470787744, 0.072446767228029813, 0.0096345638168998833, 0.0010710103130934004, 0.087479800814235842, 0.05802515984215121], [-0.0094722536095820323, -0.021697300025903671, -0.020389447481442318, -0.00466750215372236, 0.98726088053089889, -0.11567938842201152, -0.091034962035092024, -0.032265152051201944, -0.10240306490756935, 0.020490473533916368, 0.10650522261590292, 0.016119375784708765, -0.0019226437792943479, 0.028754943000862478, -0.15976459056330486]], [[-0.10511889304585167, -0.19411742432960144, 0.059980019160619763, 0.079758198551153223, -0.25957074278543513, 0.9440854888014506, -0.22780890395614586, 0.030395107016004726, 0.084683387843110566, -0.027325192247370698, 0.015180340276119508, 0.0024080660036009311, 0.010581205463160012, -0.023022174699400905, -0.04423026047119976], [0.026083073346537162, -0.095592563442404049, -0.12066789504271394, -0.090932987209172214, -0.084671997005345889, 0.9798002605586853, -0.17094884138127997, -0.16450530063917257, -0.16760971075984712, 0.017915872437510482, 0.051345093701747085, 0.058384978992242188, -0.047308269136561033, 0.037020114176259875, 0.067800495173625339], [0.052406788480762682, -0.11601529033366796, 0.010081309952459001, 0.01455643030836427, -0.17358674564373383, 0.83378757843087847, -0.45594839311837243, -0.0066356347479750626, 0.2519229369476978, -0.00016402885614442311, 0.014889449119987772, -0.020197714671938503, -0.034879912702134724, 0.00027907507994245987, 0.026764386448796987], [0.0093963686555636333, -0.0022654475015137622, -0.014387346350072876, 0.009077068929652583, -0.044881509102267875, 0.97049393764083713, 0.012227151636347678, -0.041339249192214073, -0.005044978982905712, -0.1110666733527057, -0.093744457802345554, 0.020492488399666192, -0.20964668665568731, 0.1741864983987105, 0.02730091442458735], [0, 0, 0, 0, 0, 1, 0, 0, 0, 0, 0, 0, 0, 0, 0]], [[0.058905628061123066, 0.088902602627135632, -0.016409084921694905, 0.093609227668130374, 0.13891154312469955, -0.059241022649807198, 0.92768606890798588, -0.30801756462250152, -0.14952651543379239, -0.21077318925559679, -0.059124981636080584, -0.092739952305780776, 0.068840145556993262, -0.1293959549666322, 0.068514741290440245], [0.065137003729791448, 0.06738660307620721, -0.048125478861898788, -0.1050115690233947, -0.086584977119827697, -0.10404866026348079, 0.96124669624574488, -0.17289037167345675, -0.09290940411262591, -0.087207838409918387, -0.025422779115752844, -0.055775310153112503, -0.023488421161483919, -0.07155473330049765, 0.018265879631818523], [0.062986282798706078, 0.015138064483831272, -0.053238401838910411, 0.068640047407425006, 0.036930311077451414, -4.5218367417892897e-05, 0.94503177209440592, -0.36642970626354021, -0.011436421990911378, -0.00041831208204153654, -0.04888243252337085, 0.046178293763831826, -0.10532416429742646, -0.027255209628979617, 0.0033811859087208166], [-0.011561400405478416, 0.0037749748995839268, 0.0016469646436618858, 0.035065060886859387, 0.066348664868963056, 0.00019690582288951154, 0.97357207900737308, -0.053950128191596669, -0.11579262949676622, 0.059312602569103721, 0.10777549685618243, -0.16605588189780687, 0.012772782112046098, 0.019516444401071066, 0.016068926339813223], [0, 0, 0, 0, 0, 0, 1, 0, 0, 0, 0, 0, 0, 0, 0]], [[-0.15690705804231711, -0.08173489232716788, -0.0044113993504738078, -0.068867989137329055, 0.16727681651808646, -0.018177895611537143, -0.2408235695491267, 0.93247874734711123, -0.14463113376354239, -0.034715228255969718, -0.02003854006800488, -0.052856030410277782, -0.033588264693169029, -0.0087323764101708175, 0.010465421894821266], [-0.046968717398928668, -0.062547614335945148, 0.027493588848174259, 0.05703466952311799, 0.060743236988297901, 0.057027642224634363, 0.012989994030464757, 0.99014395542141631, -0.050643052839195853, 0.053073220136664025, 0.090900434351086343, -0.0061150839309194963, -0.028097218962114381, 0.06406110741412234, -0.086717955612825151], [-0.050717290535306485, 0.0024297182277611732, 0.080938039464339806, 0.065143225441563465, 0.05787422694219025, 0.010402036588618204, 0.010749603923728883, 0.96315790076687557, 0.018345110655172924, 0.23961482219287841, 0.14691954630623968, -0.029611125892204101, 0.011918324831536632, -0.09471728426604159, 0.12322035892805948], [0, 0, 0, 0, 0, 0, 0, 1, 0, 0, 0, 0, 0, 0, 0], [0, 0, 0, 0, 0, 0, 0, 1, 0, 0, 0, 0, 0, 0, 0]], [[0.17628856765049206, 0.10299845901210153, -0.021956196861580995, 0.10479843531571127, 0.015469135519178709, -0.049235546067100476, -0.023598336666826383, -0.040636841854729315, 0.81778670379016449, -0.061801584336400213, 0.29789846345138521, 0.017574230989338406, -0.00055089263346202208, 0.092066950664604755, -0.076923903238507674], [-0.00033791628356229171, 0.021275302261712196, 0.015410990882944117, -0.0091604647452064696, -0.027430332244562958, 0.019063920206681052, 0.0096789612420460063, -0.020532500621109936, 0.94852216768622721, -0.15189585033423619, 0.06470229356361569, 0.076810362053304201, -0.11587213084109957, 0.25764564216399843, -0.1749102400516763], [-0.040856258927101756, -0.013311119158427309, -0.015283220931632485, -0.098739375617016359, -0.06276125884213711, -0.032272802101789878, -0.045963058875937532, 0.028264207809595904, 0.98578238338440194, -0.15338964399124733, -0.033440427453480262, 0.049323542211772958, -0.052742145642933766, 0.1344571462160373, 0.03842241756791491], [0, 0, 0, 0, 0, 0, 0, 0, 1, 0, 0, 0, 0, 0, 0], [0, 0, 0, 0, 0, 0, 0, 0, 1, 0, 0, 0, 0, 0, 0]], [[-0.10384009513015309, -0.034704478578270116, 0.053120708215555694, -0.019725259475620666, -0.015134162794769186, -0.051655369216682234, -0.0034539441037707615, 0.013111782388955448, 0.037359613379064821, 1.0059201461620255, 0.075524449260378157, 0.22597508484094719, 0.068253847317655256, 0.092745768141359333, -0.010552426275040411], [-0.0053773584565572135, -0.016833328377307527, 0.0074172006129936598, 0.010671925259988784, 0.0080048175584256139, 0.009969250155937014, -0.004280575864615996, 0.0082895139685718357, 0.0086534369690189523, 0.98063210101475418, -0.0052260057781686239, 0.039090021401393928, 0.063838376551471093, -0.032494471969009023, -0.012196797908924606], [0, 0, 0, 0, 0, 0, 0, 0, 0, 1, 0, 0, 0, 0, 0], [0, 0, 0, 0, 0, 0, 0, 0, 0, 1, 0, 0, 0, 0, 0], [0, 0, 0, 0, 0, 0, 0, 0, 0, 1, 0, 0, 0, 0, 0]], [[-0.044073299970189821, -0.037414004421727001, -0.050606237149435462, -0.062843800582590953, 0.018285952828407073, 0.043551984524336916, -0.056010770781319247, -0.035252064586625949, -0.0044470288656361457, -0.03600524378374783, 0.95708090496339149, 0.021869965854056962, 0.10827097859272075, 0.05783635046616073, 0.078453237749351215], [0.0022061446562900494, 0.01221812658260376, -0.0028775136577860166, -0.0093987785578540407, -0.01395270574712155, -0.014273800595522527, 0.00019742293546981402, -0.015856991635554166, -0.01853262534545572, -0.00035405127825277567, 0.99173588711822636, 0.029885879630306641, 0.075968041068651224, 0.063505209388023703, -0.028446733421107335], [0, 0, 0, 0, 0, 0, 0, 0, 0, 0, 1, 0, 0, 0, 0], [0, 0, 0, 0, 0, 0, 0, 0, 0, 0, 1, 0, 0, 0, 0], [0, 0, 0, 0, 0, 0, 0, 0, 0, 0, 1, 0, 0, 0, 0]], [[0.0090540913068482675, 0.0020675895028696126, 0.024599624211384188, 0.031088631666364819, -0.009512155417564826, -0.015992250495004676, 0.014993239746917082, 0.0085772259886151055, 0.0015184978043635512, -0.0040329656199100828, 0.013581648934150353, 0.9513166407787047, -0.088774446787355937, 0.120186380845847, 0.079552326417553498], [0, 0, 0, 0, 0, 0, 0, 0, 0, 0, 0, 1, 0, 0, 0], [0, 0, 0, 0, 0, 0, 0, 0, 0, 0, 0, 1, 0, 0, 0], [0, 0, 0, 0, 0, 0, 0, 0, 0, 0, 0, 1, 0, 0, 0], [0, 0, 0, 0, 0, 0, 0, 0, 0, 0, 0, 1, 0, 0, 0]], [[-0.0033077486368838392, -0.00091581840375828179, -0.0015286577584498386, -0.0018334194323318851, -0.0074358082911843495, -0.014537535998128133, -0.00077120569201168793, 0.008164673096838897, 0.00080886908457771813, 0.018212848293790627, 0.016207631944113374, 0.0092962293334690801, 1.0002390506634631, -0.10901452176789229, -0.11245821115189079], [0, 0, 0, 0, 0, 0, 0, 0, 0, 0, 0, 0, 1, 0, 0], [0, 0, 0, 0, 0, 0, 0, 0, 0, 0, 0, 0, 1, 0, 0], [0, 0, 0, 0, 0, 0, 0, 0, 0, 0, 0, 0, 1, 0, 0], [0, 0, 0, 0, 0, 0, 0, 0, 0, 0, 0, 0, 1, 0, 0]]], prehc: 0, lambdahc: 0, rcut: 9, dcut: 0.01, rcut_in: 0, dcut_in: 0, inner_cutoff_type: distance}
functions:
  0:
    - {mu0: 0, rank: 1, ndensity: 2, num_ms_combs: 1, mus: [0], ns: [1], ls: [0], ms_combs: [0], ctildes: [0.27199425247455672, 0.14266111599071854]}
    - {mu0: 0, rank: 1, ndensity: 2, num_ms_combs: 1, mus: [0], ns: [2], ls: [0], ms_combs: [0], ctildes: [-0.87924353678018141, 0.17979335166861699]}
    - {mu0: 0, rank: 1, ndensity: 2, num_ms_combs: 1, mus: [0], ns: [3], ls: [0], ms_combs: [0], ctildes: [-0.035813063994755208, 0.42495309469575077]}
    - {mu0: 0, rank: 1, ndensity: 2, num_ms_combs: 1, mus: [0], ns: [4], ls: [0], ms_combs: [0], ctildes: [-0.10978917855496452, -0.024969796116975473]}
    - {mu0: 0, rank: 1, ndensity: 2, num_ms_combs: 1, mus: [0], ns: [5], ls: [0], ms_combs: [0], ctildes: [-0.23323314030388828, 0.085349032951793496]}
    - {mu0: 0, rank: 1, ndensity: 2, num_ms_combs: 1, mus: [0], ns: [6], ls: [0], ms_combs: [0], ctildes: [0.073451121781014816, 0.14463659098826684]}
    - {mu0: 0, rank: 1, ndensity: 2, num_ms_combs: 1, mus: [0], ns: [7], ls: [0], ms_combs: [0], ctildes: [-0.23485877882953285, -0.049638983372601073]}
    - {mu0: 0, rank: 1, ndensity: 2, num_ms_combs: 1, mus: [0], ns: [8], ls: [0], ms_combs: [0], ctildes: [0.065322537522242138, 0.2007580583473971]}
    - {mu0: 0, rank: 1, ndensity: 2, num_ms_combs: 1, mus: [0], ns: [9], ls: [0], ms_combs: [0], ctildes: [-0.15435489981126779, -0.068838333337834151]}
    - {mu0: 0, rank: 1, ndensity: 2, num_ms_combs: 1, mus: [0], ns: [10], ls: [0], ms_combs: [0], ctildes: [-0.0572077394371244, 0.13001397321095554]}
    - {mu0: 0, rank: 1, ndensity: 2, num_ms_combs: 1, mus: [0], ns: [11], ls: [0], ms_combs: [0], ctildes: [0.010873412008345554, -0.019309950157033833]}
    - {mu0: 0, rank: 1, ndensity: 2, num_ms_combs: 1, mus: [0], ns: [12], ls: [0], ms_combs: [0], ctildes: [-0.068232037093527112, 0.029786735287091196]}
    - {mu0: 0, rank: 1, ndensity: 2, num_ms_combs: 1, mus: [0], ns: [13], ls: [0], ms_combs: [0], ctildes: [0.033972661573170512, 0.007126614374958107]}
    - {mu0: 0, rank: 1, ndensity: 2, num_ms_combs: 1, mus: [0], ns: [14], ls: [0], ms_combs: [0], ctildes: [-0.014097317592598569, -0.0075247337434876617]}
    - {mu0: 0, rank: 1, ndensity: 2, num_ms_combs: 1, mus: [0], ns: [15], ls: [0], ms_combs: [0], ctildes: [0.001067139526195891, 0.0058407098492372928]}
    - {mu0: 0, rank: 2, ndensity: 2, num_ms_combs: 1, mus: [0, 0], ns: [1, 1], ls: [0, 0], ms_combs: [0, 0], ctildes: [0.092481935250731201, -0.05148767198497111]}
    - {mu0: 0, rank: 2, ndensity: 2, num_ms_combs: 2, mus: [0, 0], ns: [1, 1], ls: [1, 1], ms_combs: [0, 0, 1, -1], ctildes: [0.21679595635344234, 0.0525810818445673, -0.43359191270688463, -0.10516216368913459]}
    - {mu0: 0, rank: 2, ndensity: 2, num_ms_combs: 3, mus: [0, 0], ns: [1, 1], ls: [2, 2], ms_combs: [0, 0, 1, -1, 2, -2], ctildes: [-0.10927312295946991, 0.035586459005690664, 0.21854624591893984, -0.071172918011381342, -0.2185462459189399, 0.071172918011381356]}
    - {mu0: 0, rank: 2, ndensity: 2, num_ms_combs: 4, mus: [0, 0], ns: [1, 1], ls: [3, 3], ms_combs: [0, 0, 1, -1, 2, -2, 3, -3], ctildes: [0.12075685193483605, 0.074283799909388382, -0.24151370386967214, -0.14856759981877679, 0.24151370386967211, 0.14856759981877676, -0.24151370386967214, -0.14856759981877679]}
    - {mu0: 0, rank: 2, ndensity: 2, num_ms_combs: 5, mus: [0, 0], ns: [1, 1], ls: [4, 4], ms_combs: [0, 0, 1, -1, 2, -2, 3, -3, 4, -4], ctildes: [0.026302424721333685, -0.0047872363936564922, -0.052604849442667363, 0.0095744727873129827, 0.052604849442667363, -0.0095744727873129827, -0.052604849442667356, 0.009574472787312981, 0.052604849442667363, -0.0095744727873129827]}
    - {mu0: 0, rank: 2, ndensity: 2, num_ms_combs: 1, mus: [0, 0], ns: [1, 2], ls: [0, 0], ms_combs: [0, 0], ctildes: [0.14725151528020963, 0.11562448907452874]}
    - {mu0: 0, rank: 2, ndensity: 2, num_ms_combs: 2, mus: [0, 0], ns: [1, 2], ls: [1, 1], ms_combs: [0, 0, 1, -1], ctildes: [-0.087861740300081384, -0.12507407587191488, 0.17572348060016274, 0.25014815174382971]}
    - {mu0: 0, rank: 2, ndensity: 2, num_ms_combs: 3, mus: [0, 0], ns: [1, 2], ls: [2, 2], ms_combs: [0, 0, 1, -1, 2, -2], ctildes: [0.0032163568671336584, -0.10979439753145444, -0.0064327137342673176, 0.2195887950629089, 0.0064327137342673193, -0.21958879506290896]}
    - {mu0: 0, rank: 2, ndensity: 2, num_ms_combs: 4, mus: [0, 0], ns: [1, 2], ls: [3, 3], ms_combs: [0, 0, 1, -1, 2, -2, 3, -3], ctildes: [-0.030770867236010718, -0.082496229460491607, 0.061541734472021443, 0.16499245892098324, -0.061541734472021437, -0.16499245892098321, 0.061541734472021443, 0.16499245892098324]}
    - {mu0: 0, rank: 2, ndensity: 2, num_ms_combs: 5, mus: [0, 0], ns: [1, 2], ls: [4, 4], ms_combs: [0, 0, 1, -1, 2, -2, 3, -3, 4, -4], ctildes: [-0.015095557141221566, -0.057620138431861784, 0.030191114282443129, 0.11524027686372354, -0.030191114282443129, -0.11524027686372354, 0.030191114282443123, 0.11524027686372353, -0.030191114282443129, -0.11524027686372354]}
    - {mu0: 0, rank: 2, ndensity: 2, num_ms_combs: 1, mus: [0, 0], ns: [1, 3], ls: [0, 0], ms_combs: [0, 0], ctildes: [0.11707640356629435, 0.53760555722551973]}
    - {mu0: 0, rank: 2, ndensity: 2, num_ms_combs: 2, mus: [0, 0], ns: [1, 3], ls: [1, 1], ms_combs: [0, 0, 1, -1], ctildes: [0.12010163389257625, -0.0020542424098717832, -0.24020326778515244, 0.0041084848197435655]}
    - {mu0: 0, rank: 2, ndensity: 2, num_ms_combs: 3, mus: [0, 0], ns: [1, 3], ls: [2, 2], ms_combs: [0, 0, 1, -1, 2, -2], ctildes: [0.19611188665584506, 0.087022009642314407, -0.39222377331169017, -0.17404401928462881, 0.39222377331169028, 0.17404401928462887]}
    - {mu0: 0, rank: 2, ndensity: 2, num_ms_combs: 4, mus: [0, 0], ns: [1, 3], ls: [3, 3], ms_combs: [0, 0, 1, -1, 2, -2, 3, -3], ctildes: [0.077068081205088429, 0.01342430899310737, -0.15413616241017689, -0.026848617986214744, 0.15413616241017686, 0.02684861798621474, -0.15413616241017689, -0.026848617986214744]}
    - {mu0: 0, rank: 2, ndensity: 2, num_ms_combs: 5, mus: [0, 0], ns: [1, 3], ls: [4, 4], ms_combs: [0, 0, 1, -1, 2, -2, 3, -3, 4, -4], ctildes: [0.0051784817447250728, 0.046801709846017232, -0.010356963489450144, -0.093603419692034451, 0.010356963489450144, 0.093603419692034451, -0.010356963489450142, -0.093603419692034437, 0.010356963489450144, 0.093603419692034451]}
    - {mu0: 0, rank: 2, ndensity: 2, num_ms_combs: 1, mus: [0, 0], ns: [1, 4], ls: [0, 0], ms_combs: [0, 0], ctildes: [-0.49381961531860252, 0.0063305655034437951]}
    - {mu0: 0, rank: 2, ndensity: 2, num_ms_combs: 2, mus: [0, 0], ns: [1, 4], ls: [1, 1], ms_combs: [0, 0, 1, -1], ctildes: [0.009367502588200325, -0.0033820311256699551, -0.018735005176400647, 0.0067640622513399085]}
    - {mu0: 0, rank: 2, ndensity: 2, num_ms_combs: 3, mus: [0, 0], ns: [1, 4], ls: [2, 2], ms_combs: [0, 0, 1, -1, 2, -2], ctildes: [-0.038134354461438986, 0.070062607554143369, 0.076268708922877987, -0.14012521510828677, -0.076268708922878001, 0.14012521510828679]}
    - {mu0: 0, rank: 2, ndensity: 2, num_ms_combs: 4, mus: [0, 0], ns: [1, 4], ls: [3, 3], ms_combs: [0, 0, 1, -1, 2, -2, 3, -3], ctildes: [-0.047467670255632297, -0.047788446648300967, 0.094935340511264607, 0.095576893296601947, -0.094935340511264593, -0.095576893296601934, 0.094935340511264607, 0.095576893296601947]}
    - {mu0: 0, rank: 2, ndensity: 2, num_ms_combs: 5, mus: [0, 0], ns: [1, 4], ls: [4, 4], ms_combs: [0, 0, 1, -1, 2, -2, 3, -3, 4, -4], ctildes: [-0.014720034918697321, -0.011849525720988668, 0.029440069837394639, 0.023699051441977332, -0.029440069837394639, -0.023699051441977332, 0.029440069837394632, 0.023699051441977328, -0.029440069837394639, -0.023699051441977332]}
    - {mu0: 0, rank: 2, ndensity: 2, num_ms_combs: 1, mus: [0, 0], ns: [1, 5], ls: [0, 0], ms_combs: [0, 0], ctildes: [0.25954332332002167, -0.0002396087895685444]}
    - {mu0: 0, rank: 2, ndensity: 2, num_ms_combs: 2, mus: [0, 0], ns: [1, 5], ls: [1, 1], ms_combs: [0, 0, 1, -1], ctildes: [-0.029521941255665093, 0.051189452115426172, 0.059043882511330179, -0.10237890423085233]}
    - {mu0: 0, rank: 2, ndensity: 2, num_ms_combs: 3, mus: [0, 0], ns: [1, 5], ls: [2, 2], ms_combs: [0, 0, 1, -1, 2, -2], ctildes: [0.075063811443890557, -0.026385065428927656, -0.15012762288778114, 0.05277013085785532, 0.15012762288778117, -0.052770130857855334]}
    - {mu0: 0, rank: 2, ndensity: 2, num_ms_combs: 4, mus: [0, 0], ns: [1, 5], ls: [3, 3], ms_combs: [0, 0, 1, -1, 2, -2, 3, -3], ctildes: [0.078771557028066583, -0.0028461265579544839, -0.15754311405613319, 0.0056922531159089686, 0.15754311405613317, -0.0056922531159089677, -0.15754311405613319, 0.0056922531159089686]}
    - {mu0: 0, rank: 2, ndensity: 2, num_ms_combs: 5, mus: [0, 0], ns: [1, 5], ls: [4, 4], ms_combs: [0, 0, 1, -1, 2, -2, 3, -3, 4, -4], ctildes: [0.0053320148270949918, 0.010697479641654311, -0.010664029654189982, -0.021394959283308618, 0.010664029654189982, 0.021394959283308618, -0.01066402965418998, -0.021394959283308614, 0.010664029654189982, 0.021394959283308618]}
    - {mu0: 0, rank: 2, ndensity: 2, num_ms_combs: 1, mus: [0, 0], ns: [1, 6], ls: [0, 0], ms_combs: [0, 0], ctildes: [0.02524041578815055, 0.084743086558540778]}
    - {mu0: 0, rank: 2, ndensity: 2, num_ms_combs: 2, mus: [0, 0], ns: [1, 6], ls: [1, 1], ms_combs: [0, 0, 1, -1], ctildes: [0.0017136327411433499, 0.14351816428942926, -0.0034272654822866989, -0.28703632857885847]}
    - {mu0: 0, rank: 2, ndensity: 2, num_ms_combs: 3, mus: [0, 0], ns: [1, 6], ls: [2, 2], ms_combs: [0, 0, 1, -1, 2, -2], ctildes: [-0.090538270419847008, 0.060097381304384766, 0.18107654083969404, -0.12019476260876955, -0.18107654083969407, 0.12019476260876957]}
    - {mu0: 0, rank: 2, ndensity: 2, num_ms_combs: 4, mus: [0, 0], ns: [1, 6], ls: [3, 3], ms_combs: [0, 0, 1, -1, 2, -2, 3, -3], ctildes: [-0.011636815993463513, 0.0059935006803212652, 0.023273631986927029, -0.011987001360642532, -0.023273631986927026, 0.01198700136064253, 0.023273631986927029, -0.011987001360642532]}
    - {mu0: 0, rank: 2, ndensity: 2, num_ms_combs: 1, mus: [0, 0], ns: [1, 7], ls: [0, 0], ms_combs: [0, 0], ctildes: [0.13341018544366443, 0.11811754489208866]}
    - {mu0: 0, rank: 2, ndensity: 2, num_ms_combs: 2, mus: [0, 0], ns: [1, 7], ls: [1, 1], ms_combs: [0, 0, 1, -1], ctildes: [-0.097097334989278583, 0.022625081416470558, 0.19419466997855714, -0.045250162832941108]}
    - {mu0: 0, rank: 2, ndensity: 2, num_ms_combs: 3, mus: [0, 0], ns: [1, 7], ls: [2, 2], ms_combs: [0, 0, 1, -1, 2, -2], ctildes: [-0.011102626971555079, 0.074064115126057553, 0.022205253943110161, -0.14812823025211513, -0.022205253943110164, 0.14812823025211516]}
    - {mu0: 0, rank: 2, ndensity: 2, num_ms_combs: 4, mus: [0, 0], ns: [1, 7], ls: [3, 3], ms_combs: [0, 0, 1, -1, 2, -2, 3, -3], ctildes: [0.023424399554749276, 0.00026627354696555296, -0.04684879910949856, -0.00053254709393110603, 0.046848799109498553, 0.00053254709393110592, -0.04684879910949856, -0.00053254709393110603]}
    - {mu0: 0, rank: 2, ndensity: 2, num_ms_combs: 1, mus: [0, 0], ns: [1, 8], ls: [0, 0], ms_combs: [0, 0], ctildes: [0.14982675860191072, 0.022932032660030726]}
    - {mu0: 0, rank: 2, ndensity: 2, num_ms_combs: 2, mus: [0, 0], ns: [1, 8], ls: [1, 1], ms_combs: [0, 0, 1, -1], ctildes: [0.059799146606848985, 0.11654779053649351, -0.11959829321369794, -0.23309558107298697]}
    - {mu0: 0, rank: 2, ndensity: 2, num_ms_combs: 3, mus: [0, 0], ns: [1, 8], ls: [2, 2], ms_combs: [0, 0, 1, -1, 2, -2], ctildes: [0.042177131283516557, 0.015175546714476686, -0.084354262567033128, -0.030351093428953375, 0.084354262567033142, 0.030351093428953382]}
    - {mu0: 0, rank: 2, ndensity: 2, num_ms_combs: 1, mus: [0, 0], ns: [1, 9], ls: [0, 0], ms_combs: [0, 0], ctildes: [-0.065928842929697695, -0.29944082896966906]}
    - {mu0: 0, rank: 2, ndensity: 2, num_ms_combs: 2, mus: [0, 0], ns: [1, 9], ls: [1, 1], ms_combs: [0, 0, 1, -1], ctildes: [-0.053613046073902097, 0.046823375481940467, 0.10722609214780418, -0.09364675096388092]}
    - {mu0: 0, rank: 2, ndensity: 2, num_ms_combs: 3, mus: [0, 0], ns: [1, 9], ls: [2, 2], ms_combs: [0, 0, 1, -1, 2, -2], ctildes: [0.031783558088327959, -0.071839815666320722, -0.063567116176655933, 0.14367963133264144, 0.063567116176655947, -0.1436796313326415]}
    - {mu0: 0, rank: 2, ndensity: 2, num_ms_combs: 1, mus: [0, 0], ns: [1, 10], ls: [0, 0], ms_combs: [0, 0], ctildes: [0.089190465197405686, 0.13838918542972212]}
    - {mu0: 0, rank: 2, ndensity: 2, num_ms_combs: 2, mus: [0, 0], ns: [1, 10], ls: [1, 1], ms_combs: [0, 0, 1, -1], ctildes: [0.010742382565326567, 0.037541449052946395, -0.02148476513065313, -0.075082898105892776]}
    - {mu0: 0, rank: 2, ndensity: 2, num_ms_combs: 1, mus: [0, 0], ns: [1, 11], ls: [0, 0], ms_combs: [0, 0], ctildes: [0.008091466929084995, -0.083328924405721566]}
    - {mu0: 0, rank: 2, ndensity: 2, num_ms_combs: 2, mus: [0, 0], ns: [1, 11], ls: [1, 1], ms_combs: [0, 0, 1, -1], ctildes: [-0.0083127541253661189, -0.052120700035849322, 0.016625508250732238, 0.10424140007169862]}
    - {mu0: 0, rank: 2, ndensity: 2, num_ms_combs: 1, mus: [0, 0], ns: [1, 12], ls: [0, 0], ms_combs: [0, 0], ctildes: [-0.0073191081902083434, 0.055652957582688796]}
    - {mu0: 0, rank: 2, ndensity: 2, num_ms_combs: 1, mus: [0, 0], ns: [1, 13], ls: [0, 0], ms_combs: [0, 0], ctildes: [0.0010819872590992633, -0.015309125755380491]}
    - {mu0: 0, rank: 2, ndensity: 2, num_ms_combs: 1, mus: [0, 0], ns: [2, 2], ls: [0, 0], ms_combs: [0, 0], ctildes: [-0.34831677413965623, 0.11149973629513933]}
    - {mu0: 0, rank: 2, ndensity: 2, num_ms_combs: 2, mus: [0, 0], ns: [2, 2], ls: [1, 1], ms_combs: [0, 0, 1, -1], ctildes: [0.15287986419771588, 0.018914975902226273, -0.3057597283954317, -0.03782995180445254]}
    - {mu0: 0, rank: 2, ndensity: 2, num_ms_combs: 3, mus: [0, 0], ns: [2, 2], ls: [2, 2], ms_combs: [0, 0, 1, -1, 2, -2], ctildes: [0.015665569295521615, 0.085567254550924177, -0.03133113859104323, -0.17113450910184838, 0.031331138591043237, 0.17113450910184844]}
    - {mu0: 0, rank: 2, ndensity: 2, num_ms_combs: 4, mus: [0, 0], ns: [2, 2], ls: [3, 3], ms_combs: [0, 0, 1, -1, 2, -2, 3, -3], ctildes: [-0.0029853698345805491, 0.06047305538265562, 0.005970739669161099, -0.12094611076531127, -0.0059707396691610981, 0.12094611076531124, 0.005970739669161099, -0.12094611076531127]}
    - {mu0: 0, rank: 2, ndensity: 2, num_ms_combs: 5, mus: [0, 0], ns: [2, 2], ls: [4, 4], ms_combs: [0, 0, 1, -1, 2, -2, 3, -3, 4, -4], ctildes: [-0.00035287454522915136, 0.009096186722752312, 0.00070574909045830261, -0.018192373445504621, -0.00070574909045830261, 0.018192373445504621, 0.00070574909045830251, -0.018192373445504617, -0.00070574909045830261, 0.018192373445504621]}
    - {mu0: 0, rank: 2, ndensity: 2, num_ms_combs: 1, mus: [0, 0], ns: [2, 3], ls: [0, 0], ms_combs: [0, 0], ctildes: [0.11681152094531859, 0.019794410785746938]}
    - {mu0: 0, rank: 2, ndensity: 2, num_ms_combs: 2, mus: [0, 0], ns: [2, 3], ls: [1, 1], ms_combs: [0, 0, 1, -1], ctildes: [0.0071795666078143406, 0.078983918587341342, -0.014359133215628679, -0.15796783717468266]}
    - {mu0: 0, rank: 2, ndensity: 2, num_ms_combs: 3, mus: [0, 0], ns: [2, 3], ls: [2, 2], ms_combs: [0, 0, 1, -1, 2, -2], ctildes: [0.0034854469687048309, 0.016570652812551795, -0.0069708939374096626, -0.033141305625103597, 0.0069708939374096644, 0.033141305625103604]}
    - {mu0: 0, rank: 2, ndensity: 2, num_ms_combs: 4, mus: [0, 0], ns: [2, 3], ls: [3, 3], ms_combs: [0, 0, 1, -1, 2, -2, 3, -3], ctildes: [-0.02436155108605589, -0.041150035866312759, 0.048723102172111787, 0.082300071732625532, -0.04872310217211178, -0.082300071732625518, 0.048723102172111787, 0.082300071732625532]}
    - {mu0: 0, rank: 2, ndensity: 2, num_ms_combs: 5, mus: [0, 0], ns: [2, 3], ls: [4, 4], ms_combs: [0, 0, 1, -1, 2, -2, 3, -3, 4, -4], ctildes: [0.0016687424420508464, -0.025217977300798691, -0.003337484884101692, 0.050435954601597374, 0.003337484884101692, -0.050435954601597374, -0.0033374848841016915, 0.050435954601597367, 0.003337484884101692, -0.050435954601597374]}
    - {mu0: 0, rank: 2, ndensity: 2, num_ms_combs: 1, mus: [0, 0], ns: [2, 4], ls: [0, 0], ms_combs: [0, 0], ctildes: [-0.046923721488808141, -0.12918044544966356]}
    - {mu0: 0, rank: 2, ndensity: 2, num_ms_combs: 2, mus: [0, 0], ns: [2, 4], ls: [1, 1], ms_combs: [0, 0, 1, -1], ctildes: [-0.02934965094596546, 0.1734068392865469, 0.058699301891930906, -0.3468136785730937]}
    - {mu0: 0, rank: 2, ndensity: 2, num_ms_combs: 3, mus: [0, 0], ns: [2, 4], ls: [2, 2], ms_combs: [0, 0, 1, -1, 2, -2], ctildes: [0.023470657138512839, -0.012619535817903347, -0.046941314277025685, 0.025239071635806697, 0.046941314277025699, -0.025239071635806704]}
    - {mu0: 0, rank: 2, ndensity: 2, num_ms_combs: 4, mus: [0, 0], ns: [2, 4], ls: [3, 3], ms_combs: [0, 0, 1, -1, 2, -2, 3, -3], ctildes: [-0.0028822645525739378, 0.079249765065823125, 0.0057645291051478765, -0.15849953013164628, -0.0057645291051478757, 0.15849953013164625, 0.0057645291051478765, -0.15849953013164628]}
    - {mu0: 0, rank: 2, ndensity: 2, num_ms_combs: 5, mus: [0, 0], ns: [2, 4], ls: [4, 4], ms_combs: [0, 0, 1, -1, 2, -2, 3, -3, 4, -4], ctildes: [0.00062943413923753665, -0.0041232037832571195, -0.0012588682784750731, 0.0082464075665142373, 0.0012588682784750731, -0.0082464075665142373, -0.0012588682784750729, 0.0082464075665142356, 0.0012588682784750731, -0.0082464075665142373]}
    - {mu0: 0, rank: 2, ndensity: 2, num_ms_combs: 1, mus: [0, 0], ns: [2, 5], ls: [0, 0], ms_combs: [0, 0], ctildes: [0.009102853714040491, 0.17822478890359791]}
    - {mu0: 0, rank: 2, ndensity: 2, num_ms_combs: 2, mus: [0, 0], ns: [2, 5], ls: [1, 1], ms_combs: [0, 0, 1, -1], ctildes: [0.1102253588327857, 0.020511455531382575, -0.22045071766557134, -0.041022911062765136]}
    - {mu0: 0, rank: 2, ndensity: 2, num_ms_combs: 3, mus: [0, 0], ns: [2, 5], ls: [2, 2], ms_combs: [0, 0, 1, -1, 2, -2], ctildes: [0.091195300199604784, 0.046821066186820859, -0.18239060039920957, -0.093642132373641732, 0.18239060039920962, 0.093642132373641759]}
    - {mu0: 0, rank: 2, ndensity: 2, num_ms_combs: 4, mus: [0, 0], ns: [2, 5], ls: [3, 3], ms_combs: [0, 0, 1, -1, 2, -2, 3, -3], ctildes: [0.0051351874254233739, -0.046525796680491747, -0.010270374850846749, 0.093051593360983509, 0.010270374850846748, -0.093051593360983495, -0.010270374850846749, 0.093051593360983509]}
    - {mu0: 0, rank: 2, ndensity: 2, num_ms_combs: 1, mus: [0, 0], ns: [2, 6], ls: [0, 0], ms_combs: [0, 0], ctildes: [-0.072094958896070774, 0.035904473513362636]}
    - {mu0: 0, rank: 2, ndensity: 2, num_ms_combs: 2, mus: [0, 0], ns: [2, 6], ls: [1, 1], ms_combs: [0, 0, 1, -1], ctildes: [-0.033505058179442729, -0.047037255627600139, 0.067010116358885444, 0.094074511255200249]}
    - {mu0: 0, rank: 2, ndensity: 2, num_ms_combs: 3, mus: [0, 0], ns: [2, 6], ls: [2, 2], ms_combs: [0, 0, 1, -1, 2, -2], ctildes: [-0.0024393747506663609, -0.092517894751629789, 0.0048787495013327227, 0.18503578950325958, -0.0048787495013327235, -0.18503578950325963]}
    - {mu0: 0, rank: 2, ndensity: 2, num_ms_combs: 4, mus: [0, 0], ns: [2, 6], ls: [3, 3], ms_combs: [0, 0, 1, -1, 2, -2, 3, -3], ctildes: [-0.00072896347333238599, -0.011112492435713594, 0.0014579269466647722, 0.022224984871427191, -0.001457926946664772, -0.022224984871427187, 0.0014579269466647722, 0.022224984871427191]}
    - {mu0: 0, rank: 2, ndensity: 2, num_ms_combs: 1, mus: [0, 0], ns: [2, 7], ls: [0, 0], ms_combs: [0, 0], ctildes: [-0.09102623026198231, -0.13791269534729814]}
    - {mu0: 0, rank: 2, ndensity: 2, num_ms_combs: 2, mus: [0, 0], ns: [2, 7], ls: [1, 1], ms_combs: [0, 0, 1, -1], ctildes: [0.04805429241822911, -0.031403180925459247, -0.096108584836458205, 0.06280636185091848]}
    - {mu0: 0, rank: 2, ndensity: 2, num_ms_combs: 3, mus: [0, 0], ns: [2, 7], ls: [2, 2], ms_combs: [0, 0, 1, -1, 2, -2], ctildes: [0.0035070734488135327, 0.072308946339558769, -0.0070141468976270662, -0.14461789267911757, 0.0070141468976270679, 0.14461789267911759]}
    - {mu0: 0, rank: 2, ndensity: 2, num_ms_combs: 1, mus: [0, 0], ns: [2, 8], ls: [0, 0], ms_combs: [0, 0], ctildes: [-0.098180307073188589, 0.24407498925150406]}
    - {mu0: 0, rank: 2, ndensity: 2, num_ms_combs: 2, mus: [0, 0], ns: [2, 8], ls: [1, 1], ms_combs: [0, 0, 1, -1], ctildes: [-0.019740069545095072, 0.14116072009262828, 0.039480139090190138, -0.28232144018525651]}
    - {mu0: 0, rank: 2, ndensity: 2, num_ms_combs: 3, mus: [0, 0], ns: [2, 8], ls: [2, 2], ms_combs: [0, 0, 1, -1, 2, -2], ctildes: [-0.003107918003283311, 0.020835298168128187, 0.0062158360065666229, -0.041670596336256381, -0.0062158360065666246, 0.041670596336256395]}
    - {mu0: 0, rank: 2, ndensity: 2, num_ms_combs: 1, mus: [0, 0], ns: [2, 9], ls: [0, 0], ms_combs: [0, 0], ctildes: [0.030657225618247349, 0.0025984129873791346]}
    - {mu0: 0, rank: 2, ndensity: 2, num_ms_combs: 2, mus: [0, 0], ns: [2, 9], ls: [1, 1], ms_combs: [0, 0, 1, -1], ctildes: [-0.0011165657476676358, -0.042648693370458846, 0.0022331314953352712, 0.085297386740917677]}
    - {mu0: 0, rank: 2, ndensity: 2, num_ms_combs: 1, mus: [0, 0], ns: [2, 10], ls: [0, 0], ms_combs: [0, 0], ctildes: [-0.034827566250625573, 0.081445988989868282]}
    - {mu0: 0, rank: 2, ndensity: 2, num_ms_combs: 2, mus: [0, 0], ns: [2, 10], ls: [1, 1], ms_combs: [0, 0, 1, -1], ctildes: [-0.00083387268856484646, 0.005539715321039594, 0.0016677453771296925, -0.011079430642079186]}
    - {mu0: 0, rank: 2, ndensity: 2, num_ms_combs: 1, mus: [0, 0], ns: [2, 11], ls: [0, 0], ms_combs: [0, 0], ctildes: [-0.0063414601135338084, 0.020724818510021285]}
    - {mu0: 0, rank: 2, ndensity: 2, num_ms_combs: 1, mus: [0, 0], ns: [2, 12], ls: [0, 0], ms_combs: [0, 0], ctildes: [0.0047540321242657687, -0.025321774874916839]}
    - {mu0: 0, rank: 2, ndensity: 2, num_ms_combs: 1, mus: [0, 0], ns: [3, 3], ls: [0, 0], ms_combs: [0, 0], ctildes: [0.30464363235801467, -0.092880060188218219]}
    - {mu0: 0, rank: 2, ndensity: 2, num_ms_combs: 2, mus: [0, 0], ns: [3, 3], ls: [1, 1], ms_combs: [0, 0, 1, -1], ctildes: [-0.017516031082772377, 0.059746435812551478, 0.035032062165544747, -0.11949287162510294]}
    - {mu0: 0, rank: 2, ndensity: 2, num_ms_combs: 3, mus: [0, 0], ns: [3, 3], ls: [2, 2], ms_combs: [0, 0, 1, -1, 2, -2], ctildes: [0.059118266582732205, -0.032694432983600141, -0.11823653316546442, 0.065388865967200283, 0.11823653316546445, -0.065388865967200296]}
    - {mu0: 0, rank: 2, ndensity: 2, num_ms_combs: 4, mus: [0, 0], ns: [3, 3], ls: [3, 3], ms_combs: [0, 0, 1, -1, 2, -2, 3, -3], ctildes: [-0.001914414669000056, 0.029637373289611278, 0.0038288293380001124, -0.059274746579222562, -0.003828829338000112, 0.059274746579222555, 0.0038288293380001124, -0.059274746579222562]}
    - {mu0: 0, rank: 2, ndensity: 2, num_ms_combs: 5, mus: [0, 0], ns: [3, 3], ls: [4, 4], ms_combs: [0, 0, 1, -1, 2, -2, 3, -3, 4, -4], ctildes: [0.00020403093166287915, 0.014190614565189804, -0.00040806186332575825, -0.028381229130379604, 0.00040806186332575825, 0.028381229130379604, -0.00040806186332575814, -0.028381229130379597, 0.00040806186332575825, 0.028381229130379604]}
    - {mu0: 0, rank: 2, ndensity: 2, num_ms_combs: 1, mus: [0, 0], ns: [3, 4], ls: [0, 0], ms_combs: [0, 0], ctildes: [0.1899350066671725, 0.015555251704370162]}
    - {mu0: 0, rank: 2, ndensity: 2, num_ms_combs: 2, mus: [0, 0], ns: [3, 4], ls: [1, 1], ms_combs: [0, 0, 1, -1], ctildes: [-0.051179832583527644, 0.06477955889636286, 0.10235966516705527, -0.12955911779272569]}
    - {mu0: 0, rank: 2, ndensity: 2, num_ms_combs: 3, mus: [0, 0], ns: [3, 4], ls: [2, 2], ms_combs: [0, 0, 1, -1, 2, -2], ctildes: [-0.071289473635739772, 0.089259934362031695, 0.14257894727147957, -0.17851986872406339, -0.1425789472714796, 0.17851986872406345]}
    - {mu0: 0, rank: 2, ndensity: 2, num_ms_combs: 4, mus: [0, 0], ns: [3, 4], ls: [3, 3], ms_combs: [0, 0, 1, -1, 2, -2, 3, -3], ctildes: [-0.013810813984977154, 0.052587438932489003, 0.027621627969954311, -0.10517487786497802, -0.027621627969954307, 0.10517487786497801, 0.027621627969954311, -0.10517487786497802]}
    - {mu0: 0, rank: 2, ndensity: 2, num_ms_combs: 1, mus: [0, 0], ns: [3, 5], ls: [0, 0], ms_combs: [0, 0], ctildes: [0.053211873522068617, 0.016158633739318178]}
    - {mu0: 0, rank: 2, ndensity: 2, num_ms_combs: 2, mus: [0, 0], ns: [3, 5], ls: [1, 1], ms_combs: [0, 0, 1, -1], ctildes: [0.039715616036659622, 0.13470346202775685, -0.07943123207331923, -0.26940692405551364]}
    - {mu0: 0, rank: 2, ndensity: 2, num_ms_combs: 3, mus: [0, 0], ns: [3, 5], ls: [2, 2], ms_combs: [0, 0, 1, -1, 2, -2], ctildes: [0.045226029265431705, -0.10627676672658434, -0.090452058530863411, 0.21255353345316871, 0.090452058530863438, -0.21255353345316877]}
    - {mu0: 0, rank: 2, ndensity: 2, num_ms_combs: 4, mus: [0, 0], ns: [3, 5], ls: [3, 3], ms_combs: [0, 0, 1, -1, 2, -2, 3, -3], ctildes: [0.0039867491446385793, -0.018350174002489707, -0.0079734982892771603, 0.03670034800497942, 0.0079734982892771585, -0.036700348004979413, -0.0079734982892771603, 0.03670034800497942]}
    - {mu0: 0, rank: 2, ndensity: 2, num_ms_combs: 1, mus: [0, 0], ns: [3, 6], ls: [0, 0], ms_combs: [0, 0], ctildes: [-0.20374044947822881, 0.16246270802926738]}
    - {mu0: 0, rank: 2, ndensity: 2, num_ms_combs: 2, mus: [0, 0], ns: [3, 6], ls: [1, 1], ms_combs: [0, 0, 1, -1], ctildes: [0.0014641176247655219, -0.020473958432852133, -0.0029282352495310434, 0.040947916865704259]}
    - {mu0: 0, rank: 2, ndensity: 2, num_ms_combs: 3, mus: [0, 0], ns: [3, 6], ls: [2, 2], ms_combs: [0, 0, 1, -1, 2, -2], ctildes: [-0.0099976975163575729, 0.061943978140530494, 0.019995395032715149, -0.12388795628106102, -0.019995395032715153, 0.12388795628106104]}
    - {mu0: 0, rank: 2, ndensity: 2, num_ms_combs: 1, mus: [0, 0], ns: [3, 7], ls: [0, 0], ms_combs: [0, 0], ctildes: [0.2259455203413776, 0.083270641761593114]}
    - {mu0: 0, rank: 2, ndensity: 2, num_ms_combs: 2, mus: [0, 0], ns: [3, 7], ls: [1, 1], ms_combs: [0, 0, 1, -1], ctildes: [0.03602897328261772, -0.055987447536334591, -0.072057946565235426, 0.11197489507266915]}
    - {mu0: 0, rank: 2, ndensity: 2, num_ms_combs: 3, mus: [0, 0], ns: [3, 7], ls: [2, 2], ms_combs: [0, 0, 1, -1, 2, -2], ctildes: [0.0058009428981525748, -0.030701089446932974, -0.011601885796305151, 0.061402178893865955, 0.011601885796305155, -0.061402178893865969]}
    - {mu0: 0, rank: 2, ndensity: 2, num_ms_combs: 1, mus: [0, 0], ns: [3, 8], ls: [0, 0], ms_combs: [0, 0], ctildes: [-0.089475362810635228, 0.025119434373344532]}
    - {mu0: 0, rank: 2, ndensity: 2, num_ms_combs: 2, mus: [0, 0], ns: [3, 8], ls: [1, 1], ms_combs: [0, 0, 1, -1], ctildes: [-0.016170377189911517, 0.029939097249889326, 0.032340754379823027, -0.059878194499778638]}
    - {mu0: 0, rank: 2, ndensity: 2, num_ms_combs: 1, mus: [0, 0], ns: [3, 9], ls: [0, 0], ms_combs: [0, 0], ctildes: [0.16754502329595036, -0.22987612232313073]}
    - {mu0: 0, rank: 2, ndensity: 2, num_ms_combs: 2, mus: [0, 0], ns: [3, 9], ls: [1, 1], ms_combs: [0, 0, 1, -1], ctildes: [0.0019849899419549081, 0.012799089613073834, -0.0039699798839098153, -0.025598179226147665]}
    - {mu0: 0, rank: 2, ndensity: 2, num_ms_combs: 1, mus: [0, 0], ns: [3, 10], ls: [0, 0], ms_combs: [0, 0], ctildes: [-0.0055121373684438564, -0.036068598196517573]}
    - {mu0: 0, rank: 2, ndensity: 2, num_ms_combs: 1, mus: [0, 0], ns: [3, 11], ls: [0, 0], ms_combs: [0, 0], ctildes: [-0.0020096853616907765, 0.026418984572752588]}
    - {mu0: 0, rank: 2, ndensity: 2, num_ms_combs: 1, mus: [0, 0], ns: [4, 4], ls: [0, 0], ms_combs: [0, 0], ctildes: [-0.10554273791853226, -0.2012511448309755]}
    - {mu0: 0, rank: 2, ndensity: 2, num_ms_combs: 2, mus: [0, 0], ns: [4, 4], ls: [1, 1], ms_combs: [0, 0, 1, -1], ctildes: [0.18809486962941677, -0.14773117306496439, -0.37618973925883348, 0.29546234612992867]}
    - {mu0: 0, rank: 2, ndensity: 2, num_ms_combs: 3, mus: [0, 0], ns: [4, 4], ls: [2, 2], ms_combs: [0, 0, 1, -1, 2, -2], ctildes: [-0.0051871055994659847, 0.06234427472482628, 0.010374211198931969, -0.12468854944965257, -0.010374211198931973, 0.12468854944965262]}
    - {mu0: 0, rank: 2, ndensity: 2, num_ms_combs: 4, mus: [0, 0], ns: [4, 4], ls: [3, 3], ms_combs: [0, 0, 1, -1, 2, -2, 3, -3], ctildes: [0.0054701773213293821, -0.00096930606947076895, -0.010940354642658766, 0.0019386121389415381, 0.010940354642658764, -0.0019386121389415379, -0.010940354642658766, 0.0019386121389415381]}
    - {mu0: 0, rank: 2, ndensity: 2, num_ms_combs: 1, mus: [0, 0], ns: [4, 5], ls: [0, 0], ms_combs: [0, 0], ctildes: [0.19908756815198725, -0.052693954943589666]}
    - {mu0: 0, rank: 2, ndensity: 2, num_ms_combs: 2, mus: [0, 0], ns: [4, 5], ls: [1, 1], ms_combs: [0, 0, 1, -1], ctildes: [0.020711402388439066, 0.017007679453787186, -0.041422804776878125, -0.034015358907574365]}
    - {mu0: 0, rank: 2, ndensity: 2, num_ms_combs: 3, mus: [0, 0], ns: [4, 5], ls: [2, 2], ms_combs: [0, 0, 1, -1, 2, -2], ctildes: [0.01137703425671473, -0.029879170883373857, -0.022754068513429464, 0.05975834176674772, 0.022754068513429471, -0.059758341766747734]}
    - {mu0: 0, rank: 2, ndensity: 2, num_ms_combs: 1, mus: [0, 0], ns: [4, 6], ls: [0, 0], ms_combs: [0, 0], ctildes: [-0.1030954936578023, 0.11440928150090182]}
    - {mu0: 0, rank: 2, ndensity: 2, num_ms_combs: 2, mus: [0, 0], ns: [4, 6], ls: [1, 1], ms_combs: [0, 0, 1, -1], ctildes: [-0.032147868822186378, -0.044405017836903343, 0.064295737644372741, 0.088810035673806673]}
    - {mu0: 0, rank: 2, ndensity: 2, num_ms_combs: 3, mus: [0, 0], ns: [4, 6], ls: [2, 2], ms_combs: [0, 0, 1, -1, 2, -2], ctildes: [-0.0078811757897177728, 0.0092590359726467536, 0.015762351579435549, -0.018518071945293507, -0.015762351579435552, 0.018518071945293511]}
    - {mu0: 0, rank: 2, ndensity: 2, num_ms_combs: 1, mus: [0, 0], ns: [4, 7], ls: [0, 0], ms_combs: [0, 0], ctildes: [0.078175030578223295, -0.19439970088114369]}
    - {mu0: 0, rank: 2, ndensity: 2, num_ms_combs: 2, mus: [0, 0], ns: [4, 7], ls: [1, 1], ms_combs: [0, 0, 1, -1], ctildes: [-0.028900668608287185, 0.084606761143135992, 0.057801337216574357, -0.16921352228627196]}
    - {mu0: 0, rank: 2, ndensity: 2, num_ms_combs: 1, mus: [0, 0], ns: [4, 8], ls: [0, 0], ms_combs: [0, 0], ctildes: [-0.016353989616451622, 0.051419377874774373]}
    - {mu0: 0, rank: 2, ndensity: 2, num_ms_combs: 2, mus: [0, 0], ns: [4, 8], ls: [1, 1], ms_combs: [0, 0, 1, -1], ctildes: [0.0010550167219954745, -0.012203799330564164, -0.0021100334439909485, 0.024407598661128321]}
    - {mu0: 0, rank: 2, ndensity: 2, num_ms_combs: 1, mus: [0, 0], ns: [4, 9], ls: [0, 0], ms_combs: [0, 0], ctildes: [0.016918796653526642, 0.053897786947494926]}
    - {mu0: 0, rank: 2, ndensity: 2, num_ms_combs: 1, mus: [0, 0], ns: [4, 10], ls: [0, 0], ms_combs: [0, 0], ctildes: [-0.0018380163545171759, 0.0073153395411516562]}
    - {mu0: 0, rank: 2, ndensity: 2, num_ms_combs: 1, mus: [0, 0], ns: [5, 5], ls: [0, 0], ms_combs: [0, 0], ctildes: [0.0091471477909563503, -0.10024288345988014]}
    - {mu0: 0, rank: 2, ndensity: 2, num_ms_combs: 2, mus: [0, 0], ns: [5, 5], ls: [1, 1], ms_combs: [0, 0, 1, -1], ctildes: [-0.044446396093590454, -0.041310822441933605, 0.088892792187180894, 0.082621644883867182]}
    - {mu0: 0, rank: 2, ndensity: 2, num_ms_combs: 3, mus: [0, 0], ns: [5, 5], ls: [2, 2], ms_combs: [0, 0, 1, -1, 2, -2], ctildes: [-0.001812954480239629, 0.0075956397267078245, 0.0036259089604792584, -0.015191279453415651, -0.0036259089604792592, 0.015191279453415654]}
    - {mu0: 0, rank: 2, ndensity: 2, num_ms_combs: 1, mus: [0, 0], ns: [5, 6], ls: [0, 0], ms_combs: [0, 0], ctildes: [0.152380633445488, -0.10517005498854368]}
    - {mu0: 0, rank: 2, ndensity: 2, num_ms_combs: 2, mus: [0, 0], ns: [5, 6], ls: [1, 1], ms_combs: [0, 0, 1, -1], ctildes: [0.0094618978277110181, 0.078520494025088247, -0.018923795655422033, -0.15704098805017647]}
    - {mu0: 0, rank: 2, ndensity: 2, num_ms_combs: 1, mus: [0, 0], ns: [5, 7], ls: [0, 0], ms_combs: [0, 0], ctildes: [-0.033202878636314673, 0.20472525013243831]}
    - {mu0: 0, rank: 2, ndensity: 2, num_ms_combs: 2, mus: [0, 0], ns: [5, 7], ls: [1, 1], ms_combs: [0, 0, 1, -1], ctildes: [-0.012673042688113829, -0.039669459457637571, 0.025346085376227651, 0.079338918915275128]}
    - {mu0: 0, rank: 2, ndensity: 2, num_ms_combs: 1, mus: [0, 0], ns: [5, 8], ls: [0, 0], ms_combs: [0, 0], ctildes: [0.019131946151195588, -0.020732077318637066]}
    - {mu0: 0, rank: 2, ndensity: 2, num_ms_combs: 1, mus: [0, 0], ns: [5, 9], ls: [0, 0], ms_combs: [0, 0], ctildes: [-0.019796187374287455, 0.11705356886432168]}
    - {mu0: 0, rank: 2, ndensity: 2, num_ms_combs: 1, mus: [0, 0], ns: [6, 6], ls: [0, 0], ms_combs: [0, 0], ctildes: [-0.039147396073170915, 0.026280498839027628]}
    - {mu0: 0, rank: 2, ndensity: 2, num_ms_combs: 2, mus: [0, 0], ns: [6, 6], ls: [1, 1], ms_combs: [0, 0, 1, -1], ctildes: [0.0016404918916950325, -0.0059282706440019249, -0.0032809837833900641, 0.011856541288003848]}
    - {mu0: 0, rank: 2, ndensity: 2, num_ms_combs: 1, mus: [0, 0], ns: [6, 7], ls: [0, 0], ms_combs: [0, 0], ctildes: [-0.0094178102147391141, -0.015428133038252015]}
    - {mu0: 0, rank: 2, ndensity: 2, num_ms_combs: 1, mus: [0, 0], ns: [6, 8], ls: [0, 0], ms_combs: [0, 0], ctildes: [0.0050916541807406578, -0.0061158242745123778]}
    - {mu0: 0, rank: 2, ndensity: 2, num_ms_combs: 1, mus: [0, 0], ns: [7, 7], ls: [0, 0], ms_combs: [0, 0], ctildes: [-0.0030073014291861423, 0.03336575272446559]}
    - {mu0: 0, rank: 3, ndensity: 2, num_ms_combs: 1, mus: [0, 0, 0], ns: [1, 1, 1], ls: [0, 0, 0], ms_combs: [0, 0, 0], ctildes: [-0.015309089448176525, 0.0044551992983597917]}
    - {mu0: 0, rank: 3, ndensity: 2, num_ms_combs: 2, mus: [0, 0, 0], ns: [1, 1, 1], ls: [0, 1, 1], ms_combs: [0, 0, 0, 0, 1, -1], ctildes: [0.019409466354835762, 0.14721300193611211, -0.038818932709671516, -0.29442600387222417]}
    - {mu0: 0, rank: 3, ndensity: 2, num_ms_combs: 3, mus: [0, 0, 0], ns: [1, 1, 1], ls: [0, 2, 2], ms_combs: [0, 0, 0, 0, 1, -1, 0, 2, -2], ctildes: [0.015472893045598742, 0.13099599124224925, -0.030945786091197486, -0.26199198248449856, 0.030945786091197497, 0.26199198248449862]}
    - {mu0: 0, rank: 3, ndensity: 2, num_ms_combs: 4, mus: [0, 0, 0], ns: [1, 1, 1], ls: [0, 3, 3], ms_combs: [0, 0, 0, 0, 1, -1, 0, 2, -2, 0, 3, -3], ctildes: [0.012510927058081127, -0.096116268627642734, -0.025021854116162257, 0.1922325372552855, 0.025021854116162253, -0.19223253725528547, -0.025021854116162257, 0.1922325372552855]}
    - {mu0: 0, rank: 3, ndensity: 2, num_ms_combs: 4, mus: [0, 0, 0], ns: [1, 1, 1], ls: [1, 1, 2], ms_combs: [-1, 1, 0, 0, 0, 0, 0, 1, -1, 1, 1, -2], ctildes: [0.10103814455403867, -0.050697040562249752, 0.10103814455403866, -0.050697040562249746, -0.35000639974016734, 0.17561970009439365, 0.2474918987149618, -0.12418188084669353]}
    - {mu0: 0, rank: 3, ndensity: 2, num_ms_combs: 8, mus: [0, 0, 0], ns: [1, 1, 1], ls: [1, 2, 3], ms_combs: [0, 0, 0, 0, 1, -1, 0, 2, -2, 1, -2, 1, 1, -1, 0, 1, 0, -1, 1, 1, -2, 1, 2, -3], ctildes: [-0.0074709022163022528, -0.066937461417612476, 0.014087268316610481, 0.12621848769015112, -0.01113696347260378, -0.099784475980700602, 0.0049806014775348349, 0.044624974278408315, -0.0086266548113429556, -0.077292722736657493, 0.012199932232112323, 0.10930841676692434, -0.015750044786610028, -0.14111655924619912, 0.019289786576588471, 0.17283178220520973]}
    - {mu0: 0, rank: 3, ndensity: 2, num_ms_combs: 5, mus: [0, 0, 0], ns: [1, 1, 1], ls: [2, 2, 2], ms_combs: [-2, 0, 2, -2, 1, 1, -1, -1, 2, -1, 0, 1, 0, 0, 0], ctildes: [-0.37903188985295427, 0.19400400231248607, 0.30947824212751157, -0.15840360457443953, 0.15473912106375579, -0.079201802287219764, -0.18951594492647708, 0.097002001156243009, 0.063171981642159022, -0.032334000385414334]}
    - {mu0: 0, rank: 3, ndensity: 2, num_ms_combs: 9, mus: [0, 0, 0], ns: [1, 1, 1], ls: [2, 3, 3], ms_combs: [0, -3, 3, 0, -1, 1, 0, 0, 0, 1, -3, 2, 1, -2, 1, 1, -1, 0, 2, -3, 1, 2, -2, 0, 2, -1, -1], ctildes: [0.0048374529814006742, -0.040723598819513124, -0.0029024717888404034, 0.024434159291707863, 0.0019349811925602691, -0.016289439527805243, -0.0096749059628013466, 0.081447197639026234, 0.0074941499340104908, -0.06308872801024254, -0.0027364766454555977, 0.023036746303678562, 0.0061189477980793079, -0.05151173071544228, -0.0086534989634967432, 0.072848588199089195, 0.0047397165836547414, -0.039900815039045807]}
    - {mu0: 0, rank: 3, ndensity: 2, num_ms_combs: 1, mus: [0, 0, 0], ns: [1, 1, 2], ls: [0, 0, 0], ms_combs: [0, 0, 0], ctildes: [-0.062623440818972115, -0.16968579484772958]}
    - {mu0: 0, rank: 3, ndensity: 2, num_ms_combs: 2, mus: [0, 0, 0], ns: [1, 1, 2], ls: [0, 1, 1], ms_combs: [0, 0, 0, 0, 1, -1], ctildes: [0.047972865303984306, -0.13079412223956244, -0.095945730607968599, 0.26158824447912482]}
    - {mu0: 0, rank: 3, ndensity: 2, num_ms_combs: 3, mus: [0, 0, 0], ns: [1, 1, 2], ls: [0, 2, 2], ms_combs: [0, 0, 0, 0, 1, -1, 0, 2, -2], ctildes: [-0.023779436469301685, -0.049772502215468487, 0.047558872938603378, 0.099545004430936987, -0.047558872938603391, -0.099545004430937015]}
    - {mu0: 0, rank: 3, ndensity: 2, num_ms_combs: 4, mus: [0, 0, 0], ns: [1, 1, 2], ls: [0, 3, 3], ms_combs: [0, 0, 0, 0, 1, -1, 0, 2, -2, 0, 3, -3], ctildes: [0.01253931993400407, -0.077787283513503169, -0.025078639868008144, 0.15557456702700637, 0.025078639868008141, -0.15557456702700634, -0.025078639868008144, 0.15557456702700637]}
    - {mu0: 0, rank: 3, ndensity: 2, num_ms_combs: 2, mus: [0, 0, 0], ns: [1, 1, 2], ls: [1, 1, 0], ms_combs: [0, 0, 0, 1, -1, 0], ctildes: [0.083093836686210995, 0.14943865182446603, -0.16618767337242193, -0.298877303648932]}
    - {mu0: 0, rank: 3, ndensity: 2, num_ms_combs: 4, mus: [0, 0, 0], ns: [1, 1, 2], ls: [1, 1, 2], ms_combs: [-1, 1, 0, 0, 0, 0, 0, 1, -1, 1, 1, -2], ctildes: [-0.055969874108268459, 0.11856417538156583, -0.055969874108268453, 0.1185641753815658, 0.19388533129750959, -0.41071835143675822, -0.13709763253306942, 0.29042173145869138]}
    - {mu0: 0, rank: 3, ndensity: 2, num_ms_combs: 5, mus: [0, 0, 0], ns: [1, 1, 2], ls: [1, 2, 1], ms_combs: [0, 0, 0, 0, 1, -1, 1, -2, 1, 1, -1, 0, 1, 0, -1], ctildes: [0.1258589978260998, 0.017616517472665568, -0.21799417882450575, -0.030512703315081633, 0.30829032421200175, 0.04315147885285494, -0.21799417882450575, -0.030512703315081633, 0.1258589978260998, 0.017616517472665565]}
    - {mu0: 0, rank: 3, ndensity: 2, num_ms_combs: 8, mus: [0, 0, 0], ns: [1, 1, 2], ls: [1, 2, 3], ms_combs: [0, 0, 0, 0, 1, -1, 0, 2, -2, 1, -2, 1, 1, -1, 0, 1, 0, -1, 1, 1, -2, 1, 2, -3], ctildes: [0.0047512926288300573, 0.001347887667735894, -0.0089591232993263773, -0.0025416013603567224, 0.0070828088660384548, 0.0020093123007274057, -0.0031675284192200382, -0.00089859177849059611, 0.0054863201565074357, 0.0015564066156093907, -0.007758828372853699, -0.002201091344362009, 0.010016604358047984, 0.0028415967067317843, -0.012267784816277912, -0.0034802309931329829]}
    - {mu0: 0, rank: 3, ndensity: 2, num_ms_combs: 8, mus: [0, 0, 0], ns: [1, 1, 2], ls: [1, 3, 2], ms_combs: [0, 0, 0, 0, 1, -1, 0, 2, -2, 1, -3, 2, 1, -2, 1, 1, -1, 0, 1, 0, -1, 1, 1, -2], ctildes: [-0.0072675230812392589, -0.053624335949312298, 0.013703772941797424, 0.10111501756369146, -0.01083378375846648, -0.079938440287298726, 0.01876466390787845, 0.13845744005541222, -0.015321283923040654, -0.11305002640924963, 0.011867815495290378, 0.087568173914266509, -0.0083918128145906122, -0.061920049590900784, 0.0048450153874928419, 0.035749557299541553]}
    - {mu0: 0, rank: 3, ndensity: 2, num_ms_combs: 3, mus: [0, 0, 0], ns: [1, 1, 2], ls: [2, 2, 0], ms_combs: [0, 0, 0, 1, -1, 0, 2, -2, 0], ctildes: [-0.01392306017667869, 0.12874704367799419, 0.027846120353357384, -0.25749408735598844, -0.02784612035335739, 0.2574940873559885]}
    - {mu0: 0, rank: 3, ndensity: 2, num_ms_combs: 8, mus: [0, 0, 0], ns: [1, 1, 2], ls: [2, 2, 2], ms_combs: [-2, 1, 1, -2, 2, 0, -1, 1, 0, -1, 2, -1, 0, 0, 0, 0, 1, -1, 0, 2, -2, 1, 1, -2], ctildes: [-0.053854393248331349, 0.084118167459720061, 0.043971927955199747, -0.068682196124767309, 0.021985963977599873, -0.034341098062383654, -0.053854393248331349, 0.084118167459720061, -0.021985963977599873, 0.034341098062383654, 0.043971927955199747, -0.068682196124767309, 0.087943855910399549, -0.1373643922495347, -0.053854393248331349, 0.084118167459720061]}
    - {mu0: 0, rank: 3, ndensity: 2, num_ms_combs: 8, mus: [0, 0, 0], ns: [1, 1, 2], ls: [2, 3, 1], ms_combs: [0, 0, 0, 0, 1, -1, 1, -2, 1, 1, -1, 0, 1, 0, -1, 2, -3, 1, 2, -2, 0, 2, -1, -1], ctildes: [0.015232696821013376, -0.073434304371597356, -0.024874889745332116, 0.11991771688443037, 0.032113344574138981, -0.15481310680287164, -0.028723048581059528, 0.13846905224766246, 0.01758920322019205, -0.084794630793389253, -0.039330654070407631, 0.18960655858101533, 0.022707563714953891, -0.10946939763686772, -0.010155131214008913, 0.048956202914398221]}
    - {mu0: 0, rank: 3, ndensity: 2, num_ms_combs: 14, mus: [0, 0, 0], ns: [1, 1, 2], ls: [2, 3, 3], ms_combs: [0, 0, 0, 0, 1, -1, 0, 3, -3, 1, -3, 2, 1, -2, 1, 1, -1, 0, 1, 0, -1, 1, 1, -2, 1, 2, -3, 2, -3, 1, 2, -2, 0, 2, -1, -1, 2, 0, -2, 2, 1, -3], ctildes: [-0.016215606833736393, 0.034795898030132312, 0.024323410250604589, -0.052193847045198458, -0.040539017084340996, 0.086989745075330804, 0.040539017084340989, -0.086989745075330777, -0.031401387607854124, 0.067381966793516962, 0.011466165553189921, -0.024604415454582178, 0.01146616555318993, -0.024604415454582199, -0.031401387607854124, 0.067381966793516962, 0.040539017084340996, -0.086989745075330804, -0.025639125618199154, 0.055017145503092162, 0.036259199176644705, -0.077805993333526863, -0.039719962612242109, 0.085232195315738501, 0.036259199176644712, -0.077805993333526877, -0.025639125618199154, 0.055017145503092162]}
    - {mu0: 0, rank: 3, ndensity: 2, num_ms_combs: 4, mus: [0, 0, 0], ns: [1, 1, 2], ls: [3, 3, 0], ms_combs: [0, 0, 0, 1, -1, 0, 2, -2, 0, 3, -3, 0], ctildes: [-0.0032019251930771068, 0.057977362892081059, 0.0064038503861542145, -0.11595472578416213, -0.0064038503861542136, 0.11595472578416212, 0.0064038503861542145, -0.11595472578416213]}
    - {mu0: 0, rank: 3, ndensity: 2, num_ms_combs: 12, mus: [0, 0, 0], ns: [1, 1, 2], ls: [3, 3, 2], ms_combs: [-3, 1, 2, -3, 2, 1, -3, 3, 0, -2, 1, 1, -2, 3, -1, -1, 1, 0, -1, 2, -1, -1, 3, -2, 0, 0, 0, 0, 1, -1, 0, 2, -2, 1, 1, -2], ctildes: [-0.0019053963461329213, -0.02118245308122255, 0.0030126961495712964, 0.033492399083157459, -0.0030126961495712968, -0.033492399083157459, -0.0023336244028945687, -0.025943100774720288, 0.0030126961495712964, 0.033492399083157459, 0.0018076176897427773, 0.020095439449894469, -0.0023336244028945687, -0.025943100774720288, -0.0019053963461329213, -0.02118245308122255, -0.0012050784598285184, -0.013396959633262982, 0.0017042383016131722, 0.018946162007925399, 0.005389274708794637, 0.0599130248635934, -0.0029518273265989078, -0.032815715206157982]}
    - {mu0: 0, rank: 3, ndensity: 2, num_ms_combs: 1, mus: [0, 0, 0], ns: [1, 1, 3], ls: [0, 0, 0], ms_combs: [0, 0, 0], ctildes: [-0.13668291111516975, 0.050362301563867756]}
    - {mu0: 0, rank: 3, ndensity: 2, num_ms_combs: 2, mus: [0, 0, 0], ns: [1, 1, 3], ls: [0, 1, 1], ms_combs: [0, 0, 0, 0, 1, -1], ctildes: [0.22918449597843513, -0.13152379776169579, -0.4583689919568702, 0.26304759552339152]}
    - {mu0: 0, rank: 3, ndensity: 2, num_ms_combs: 3, mus: [0, 0, 0], ns: [1, 1, 3], ls: [0, 2, 2], ms_combs: [0, 0, 0, 0, 1, -1, 0, 2, -2], ctildes: [-0.0055077062811176962, -0.021110025704163364, 0.011015412562235394, 0.042220051408326735, -0.011015412562235396, -0.042220051408326742]}
    - {mu0: 0, rank: 3, ndensity: 2, num_ms_combs: 4, mus: [0, 0, 0], ns: [1, 1, 3], ls: [0, 3, 3], ms_combs: [0, 0, 0, 0, 1, -1, 0, 2, -2, 0, 3, -3], ctildes: [-0.013784070497999736, 0.061388425967255321, 0.027568140995999475, -0.12277685193451066, -0.027568140995999472, 0.12277685193451064, 0.027568140995999475, -0.12277685193451066]}
    - {mu0: 0, rank: 3, ndensity: 2, num_ms_combs: 2, mus: [0, 0, 0], ns: [1, 1, 3], ls: [1, 1, 0], ms_combs: [0, 0, 0, 1, -1, 0], ctildes: [-0.024554851118222774, 0.019381036941495042, 0.049109702236445542, -0.038762073882990071]}
    - {mu0: 0, rank: 3, ndensity: 2, num_ms_combs: 4, mus: [0, 0, 0], ns: [1, 1, 3], ls: [1, 1, 2], ms_combs: [-1, 1, 0, 0, 0, 0, 0, 1, -1, 1, 1, -2], ctildes: [-0.014202525009535297, 0.10755847984117012, -0.014202525009535295, 0.1075584798411701, 0.049198989824565581, -0.37259350373955907, -0.034788939332478279, 0.26346339312029754]}
    - {mu0: 0, rank: 3, ndensity: 2, num_ms_combs: 5, mus: [0, 0, 0], ns: [1, 1, 3], ls: [1, 2, 1], ms_combs: [0, 0, 0, 0, 1, -1, 1, -2, 1, 1, -1, 0, 1, 0, -1], ctildes: [0.14828572324434453, 0.11594746310981621, -0.25683840669630198, -0.2008268971149198, 0.36322435808820697, 0.28401212158922573, -0.25683840669630198, -0.2008268971149198, 0.1482857232443445, 0.11594746310981618]}
    - {mu0: 0, rank: 3, ndensity: 2, num_ms_combs: 8, mus: [0, 0, 0], ns: [1, 1, 3], ls: [1, 2, 3], ms_combs: [0, 0, 0, 0, 1, -1, 0, 2, -2, 1, -2, 1, 1, -1, 0, 1, 0, -1, 1, 1, -2, 1, 2, -3], ctildes: [-0.0085046272964058797, 0.038671945061098306, 0.016036479020674167, -0.072920518918336605, -0.012677949838709198, 0.057648731985835366, 0.005669751530937254, -0.025781296707398871, -0.0098202977178747479, 0.044654515782223049, 0.013887998219160026, -0.06315102184042326, -0.017929328604988339, 0.081527618627980025, 0.021958853256453987, -0.099850532791387933]}
    - {mu0: 0, rank: 3, ndensity: 2, num_ms_combs: 8, mus: [0, 0, 0], ns: [1, 1, 3], ls: [1, 3, 2], ms_combs: [0, 0, 0, 0, 1, -1, 0, 2, -2, 1, -3, 2, 1, -2, 1, 1, -1, 0, 1, 0, -1, 1, 1, -2], ctildes: [-0.0026249240767977407, -0.013520153594256885, 0.0049496043061427221, 0.025493846104487256, -0.0039130057809970871, -0.020154655001997684, 0.0067775248229976883, 0.034908886472482192, -0.0055338258451304032, -0.028502986448775854, 0.0042864830678004473, 0.022078318366656913, -0.0030310012446830119, -0.015611728634258604, 0.001749949384531828, 0.0090134357295045941]}
    - {mu0: 0, rank: 3, ndensity: 2, num_ms_combs: 3, mus: [0, 0, 0], ns: [1, 1, 3], ls: [2, 2, 0], ms_combs: [0, 0, 0, 1, -1, 0, 2, -2, 0], ctildes: [0.11086198463358703, -0.080783655417951808, -0.22172396926717408, 0.16156731083590364, 0.22172396926717414, -0.16156731083590367]}
    - {mu0: 0, rank: 3, ndensity: 2, num_ms_combs: 8, mus: [0, 0, 0], ns: [1, 1, 3], ls: [2, 2, 2], ms_combs: [-2, 1, 1, -2, 2, 0, -1, 1, 0, -1, 2, -1, 0, 0, 0, 0, 1, -1, 0, 2, -2, 1, 1, -2], ctildes: [-0.086389809414179175, 0.0016095784389303239, 0.070536984013675155, -0.0013142152921215959, 0.035268492006837578, -0.00065710764606079794, -0.086389809414179175, 0.0016095784389303239, -0.035268492006837578, 0.00065710764606079794, 0.070536984013675155, -0.0013142152921215959, 0.14107396802735039, -0.0026284305842431931, -0.086389809414179175, 0.0016095784389303239]}
    - {mu0: 0, rank: 3, ndensity: 2, num_ms_combs: 8, mus: [0, 0, 0], ns: [1, 1, 3], ls: [2, 3, 1], ms_combs: [0, 0, 0, 0, 1, -1, 1, -2, 1, 1, -1, 0, 1, 0, -1, 2, -3, 1, 2, -2, 0, 2, -1, -1], ctildes: [0.0020483937859644367, 0.093903814572191754, -0.0033450130452671242, -0.15334428706853143, 0.0043183932723887099, 0.19796662335082391, -0.0038624883642555696, -0.1770667308354158, 0.0023652814074658474, 0.10843078524237518, -0.0052889300130100139, -0.24245860665563196, 0.0030535651667364218, 0.13998354181997066, -0.0013655958573096239, -0.062602543048127818]}
    - {mu0: 0, rank: 3, ndensity: 2, num_ms_combs: 14, mus: [0, 0, 0], ns: [1, 1, 3], ls: [2, 3, 3], ms_combs: [0, 0, 0, 0, 1, -1, 0, 3, -3, 1, -3, 2, 1, -2, 1, 1, -1, 0, 1, 0, -1, 1, 1, -2, 1, 2, -3, 2, -3, 1, 2, -2, 0, 2, -1, -1, 2, 0, -2, 2, 1, -3], ctildes: [0.00065864720679833795, 0.0016007686536073293, -0.00098797081019750686, -0.0024011529804109939, 0.0016466180169958454, 0.0040019216340183243, -0.0016466180169958449, -0.0040019216340183234, 0.0012754648314779978, 0.0030998751682760283, -0.00046573390633668292, -0.0011319143700766017, -0.0004657339063366833, -0.0011319143700766025, 0.001275464831477998, 0.0030998751682760287, -0.0016466180169958454, -0.0040019216340183243, 0.0010414126739953435, 0.0025310374762001365, -0.0014727799275914451, -0.0035794275257168022, 0.0016133495771653197, 0.0039210663975799923, -0.0014727799275914453, -0.0035794275257168026, 0.0010414126739953435, 0.0025310374762001365]}
    - {mu0: 0, rank: 3, ndensity: 2, num_ms_combs: 4, mus: [0, 0, 0], ns: [1, 1, 3], ls: [3, 3, 0], ms_combs: [0, 0, 0, 1, -1, 0, 2, -2, 0, 3, -3, 0], ctildes: [0.012532437480144314, -0.097232266559611868, -0.025064874960288631, 0.19446453311922376, 0.025064874960288627, -0.19446453311922374, -0.025064874960288631, 0.19446453311922376]}
    - {mu0: 0, rank: 3, ndensity: 2, num_ms_combs: 12, mus: [0, 0, 0], ns: [1, 1, 3], ls: [3, 3, 2], ms_combs: [-3, 1, 2, -3, 2, 1, -3, 3, 0, -2, 1, 1, -2, 3, -1, -1, 1, 0, -1, 2, -1, -1, 3, -2, 0, 0, 0, 0, 1, -1, 0, 2, -2, 1, 1, -2], ctildes: [0.01157140208449983, -0.098189599058250421, -0.018295993154319814, 0.15525138778139769, 0.018295993154319814, -0.15525138778139772, 0.014172015357801113, -0.12025720787058862, -0.018295993154319814, 0.15525138778139769, -0.010977595892591884, 0.093150832668838585, 0.014172015357801113, -0.12025720787058862, 0.01157140208449983, -0.098189599058250421, 0.0073183972617279248, -0.062100555112559075, -0.010349776662369754, 0.087823447271078908, -0.032728867527143941, 0.27772212534430857, 0.017926339026215057, -0.15211467276935497]}
    - {mu0: 0, rank: 3, ndensity: 2, num_ms_combs: 1, mus: [0, 0, 0], ns: [1, 1, 4], ls: [0, 0, 0], ms_combs: [0, 0, 0], ctildes: [0.17212942776843551, -0.075838649806542716]}
    - {mu0: 0, rank: 3, ndensity: 2, num_ms_combs: 2, mus: [0, 0, 0], ns: [1, 1, 4], ls: [0, 1, 1], ms_combs: [0, 0, 0, 0, 1, -1], ctildes: [-0.005364760138134651, -0.043616797971022442, 0.0107295202762693, 0.08723359594204487]}
    - {mu0: 0, rank: 3, ndensity: 2, num_ms_combs: 3, mus: [0, 0, 0], ns: [1, 1, 4], ls: [0, 2, 2], ms_combs: [0, 0, 0, 0, 1, -1, 0, 2, -2], ctildes: [-0.017687028183698619, -0.02966460647145186, 0.035374056367397246, 0.059329212942903727, -0.035374056367397252, -0.05932921294290374]}
    - {mu0: 0, rank: 3, ndensity: 2, num_ms_combs: 4, mus: [0, 0, 0], ns: [1, 1, 4], ls: [0, 3, 3], ms_combs: [0, 0, 0, 0, 1, -1, 0, 2, -2, 0, 3, -3], ctildes: [0.00033525484268016507, -0.025132990541096616, -0.00067050968536033024, 0.05026598108219324, 0.00067050968536033013, -0.050265981082193233, -0.00067050968536033024, 0.05026598108219324]}
    - {mu0: 0, rank: 3, ndensity: 2, num_ms_combs: 2, mus: [0, 0, 0], ns: [1, 1, 4], ls: [1, 1, 0], ms_combs: [0, 0, 0, 1, -1, 0], ctildes: [0.023987126040428838, -0.028391498938921733, -0.04797425208085767, 0.056782997877843459]}
    - {mu0: 0, rank: 3, ndensity: 2, num_ms_combs: 4, mus: [0, 0, 0], ns: [1, 1, 4], ls: [1, 1, 2], ms_combs: [-1, 1, 0, 0, 0, 0, 0, 1, -1, 1, 1, -2], ctildes: [0.0026685905124996354, -0.088029164444084512, 0.0026685905124996349, -0.088029164444084498, -0.009244268704491276, 0.30494197072998019, 0.0065366850880563621, -0.21562653537155871]}
    - {mu0: 0, rank: 3, ndensity: 2, num_ms_combs: 5, mus: [0, 0, 0], ns: [1, 1, 4], ls: [1, 2, 1], ms_combs: [0, 0, 0, 0, 1, -1, 1, -2, 1, 1, -1, 0, 1, 0, -1], ctildes: [-0.041750656246755329, 0.050898587901427719, 0.072314257868723156, -0.088158940278783376, -0.10226780423089359, 0.12467556898669516, 0.072314257868723156, -0.088158940278783376, -0.041750656246755322, 0.050898587901427712]}
    - {mu0: 0, rank: 3, ndensity: 2, num_ms_combs: 8, mus: [0, 0, 0], ns: [1, 1, 4], ls: [1, 2, 3], ms_combs: [0, 0, 0, 0, 1, -1, 0, 2, -2, 1, -2, 1, 1, -1, 0, 1, 0, -1, 1, 1, -2, 1, 2, -3], ctildes: [0.0089774438613048624, 0.060547791598760399, -0.016928030485467233, -0.11417001073427563, 0.013382783158710575, 0.090259318601545943, -0.0059849625742032413, -0.040365194399173604, 0.01036625925991823, 0.069914567556763355, -0.014660104436452047, -0.098874129646224745, 0.01892611344534674, 0.12764595249686045, -0.023179660377563825, -0.15633372567442425]}
    - {mu0: 0, rank: 3, ndensity: 2, num_ms_combs: 8, mus: [0, 0, 0], ns: [1, 1, 4], ls: [1, 3, 2], ms_combs: [0, 0, 0, 0, 1, -1, 0, 2, -2, 1, -3, 2, 1, -2, 1, 1, -1, 0, 1, 0, -1, 1, 1, -2], ctildes: [0.010973596099738785, -0.075309876195260125, -0.020692011243006792, 0.14200566439463413, 0.016358471224428336, -0.11226533503312998, -0.028333703294863333, 0.19444926420612332, 0.023134371865276553, -0.15876715938821173, -0.0179198073918371, 0.12298051284704052, 0.012671217324324835, -0.086960354587941685, -0.0073157307331591943, 0.05020658413017344]}
    - {mu0: 0, rank: 3, ndensity: 2, num_ms_combs: 3, mus: [0, 0, 0], ns: [1, 1, 4], ls: [2, 2, 0], ms_combs: [0, 0, 0, 1, -1, 0, 2, -2, 0], ctildes: [0.015016957821537724, 0.051563525727132208, -0.030033915643075452, -0.10312705145426443, 0.030033915643075459, 0.10312705145426446]}
    - {mu0: 0, rank: 3, ndensity: 2, num_ms_combs: 8, mus: [0, 0, 0], ns: [1, 1, 4], ls: [2, 2, 2], ms_combs: [-2, 1, 1, -2, 2, 0, -1, 1, 0, -1, 2, -1, 0, 0, 0, 0, 1, -1, 0, 2, -2, 1, 1, -2], ctildes: [0.0012734179041295843, -0.012812634094901279, -0.0010397413648139562, 0.0104614719311649, -0.00051987068240697812, 0.0052307359655824502, 0.0012734179041295843, -0.012812634094901279, 0.00051987068240697812, -0.0052307359655824502, -0.0010397413648139562, 0.0104614719311649, -0.0020794827296279138, 0.020922943862329815, 0.0012734179041295843, -0.012812634094901279]}
    - {mu0: 0, rank: 3, ndensity: 2, num_ms_combs: 8, mus: [0, 0, 0], ns: [1, 1, 4], ls: [2, 3, 1], ms_combs: [0, 0, 0, 0, 1, -1, 1, -2, 1, 1, -1, 0, 1, 0, -1, 2, -3, 1, 2, -2, 0, 2, -1, -1], ctildes: [0.0041013153946852848, -0.023368057648840788, -0.0066974199941335615, 0.038159878346400986, 0.0086463320332786225, -0.049264191109637354, -0.0077335144729779905, 0.044063232071075972, 0.0047357910943062083, -0.026983108747993832, -0.010589550814106802, 0.060336065404783465, 0.0061138800131217809, -0.034835043603294591, -0.002734210263123522, 0.015578705099227185]}
    - {mu0: 0, rank: 3, ndensity: 2, num_ms_combs: 4, mus: [0, 0, 0], ns: [1, 1, 4], ls: [3, 3, 0], ms_combs: [0, 0, 0, 1, -1, 0, 2, -2, 0, 3, -3, 0], ctildes: [-0.016085188953549701, 0.17041555377521239, 0.032170377907099409, -0.34083110755042484, -0.032170377907099403, 0.34083110755042478, 0.032170377907099409, -0.34083110755042484]}
    - {mu0: 0, rank: 3, ndensity: 2, num_ms_combs: 1, mus: [0, 0, 0], ns: [1, 1, 5], ls: [0, 0, 0], ms_combs: [0, 0, 0], ctildes: [-0.13852437974710993, 0.051536488897599056]}
    - {mu0: 0, rank: 3, ndensity: 2, num_ms_combs: 2, mus: [0, 0, 0], ns: [1, 1, 5], ls: [0, 1, 1], ms_combs: [0, 0, 0, 0, 1, -1], ctildes: [0.13216946643201091, 0.107494682853568, -0.26433893286402177, -0.21498936570713595]}
    - {mu0: 0, rank: 3, ndensity: 2, num_ms_combs: 3, mus: [0, 0, 0], ns: [1, 1, 5], ls: [0, 2, 2], ms_combs: [0, 0, 0, 0, 1, -1, 0, 2, -2], ctildes: [0.018222935105978333, 0.12881042152908165, -0.036445870211956673, -0.2576208430581633, 0.03644587021195668, 0.25762084305816341]}
    - {mu0: 0, rank: 3, ndensity: 2, num_ms_combs: 4, mus: [0, 0, 0], ns: [1, 1, 5], ls: [0, 3, 3], ms_combs: [0, 0, 0, 0, 1, -1, 0, 2, -2, 0, 3, -3], ctildes: [-0.00419469353823372, 0.032825456423678727, 0.0083893870764674399, -0.065650912847357454, -0.0083893870764674399, 0.065650912847357454, 0.0083893870764674399, -0.065650912847357454]}
    - {mu0: 0, rank: 3, ndensity: 2, num_ms_combs: 2, mus: [0, 0, 0], ns: [1, 1, 5], ls: [1, 1, 0], ms_combs: [0, 0, 0, 1, -1, 0], ctildes: [-0.060913795438082452, 0.034969725461359846, 0.12182759087616489, -0.069939450922719679]}
    - {mu0: 0, rank: 3, ndensity: 2, num_ms_combs: 4, mus: [0, 0, 0], ns: [1, 1, 5], ls: [1, 1, 2], ms_combs: [-1, 1, 0, 0, 0, 0, 0, 1, -1, 1, 1, -2], ctildes: [-0.0025128658689917097, 0.053481739601516677, -0.0025128658689917093, 0.05348173960151667, 0.0087048227153987204, -0.18526618053399077, -0.006155239171085132, 0.13100297258011603]}
    - {mu0: 0, rank: 3, ndensity: 2, num_ms_combs: 5, mus: [0, 0, 0], ns: [1, 1, 5], ls: [1, 2, 1], ms_combs: [0, 0, 0, 0, 1, -1, 1, -2, 1, 1, -1, 0, 1, 0, -1], ctildes: [0.01715979375103804, -0.014023221389228685, -0.029721634624200813, 0.024288931931930699, 0.042032738781442557, -0.034349736953693331, -0.029721634624200813, 0.024288931931930699, 0.017159793751038037, -0.014023221389228683]}
    - {mu0: 0, rank: 3, ndensity: 2, num_ms_combs: 8, mus: [0, 0, 0], ns: [1, 1, 5], ls: [1, 2, 3], ms_combs: [0, 0, 0, 0, 1, -1, 0, 2, -2, 1, -2, 1, 1, -1, 0, 1, 0, -1, 1, 1, -2, 1, 2, -3], ctildes: [-0.0155915502463089, -0.0073527628990182944, 0.029399709089002159, 0.013864502683607186, -0.023242510816900191, -0.010960851776428884, 0.0103943668308726, 0.0049018419326788626, -0.018003571463580038, -0.0084902392780714098, 0.025460894934948127, 0.012007011534841346, -0.03286987402086361, -0.015500985237386957, 0.040257209630340345, 0.018984752171006414]}
    - {mu0: 0, rank: 3, ndensity: 2, num_ms_combs: 8, mus: [0, 0, 0], ns: [1, 1, 5], ls: [1, 3, 2], ms_combs: [0, 0, 0, 0, 1, -1, 0, 2, -2, 1, -3, 2, 1, -2, 1, 1, -1, 0, 1, 0, -1, 1, 1, -2], ctildes: [-0.0099747416782345159, 0.032156008384412162, 0.018808553283369899, -0.060633950892024863, -0.014869466967021818, 0.047935347088399215, 0.025754672268348881, -0.083026456635556273, -0.021028601850020978, 0.067790817969475795, 0.016288684951831545, -0.052510541804311653, -0.011517839586051359, 0.037130560193608463, 0.0066498277854896808, -0.021437338922941449]}
    - {mu0: 0, rank: 3, ndensity: 2, num_ms_combs: 3, mus: [0, 0, 0], ns: [1, 1, 5], ls: [2, 2, 0], ms_combs: [0, 0, 0, 1, -1, 0, 2, -2, 0], ctildes: [-0.022120636249652319, 0.092249746029787444, 0.044241272499304637, -0.18449949205957492, -0.044241272499304651, 0.18449949205957497]}
    - {mu0: 0, rank: 3, ndensity: 2, num_ms_combs: 8, mus: [0, 0, 0], ns: [1, 1, 5], ls: [2, 2, 2], ms_combs: [-2, 1, 1, -2, 2, 0, -1, 1, 0, -1, 2, -1, 0, 0, 0, 0, 1, -1, 0, 2, -2, 1, 1, -2], ctildes: [-0.01061433501778679, 0.040364909702612896, 0.0086665682508443465, -0.032957810761639818, 0.0043332841254221733, -0.016478905380819909, -0.01061433501778679, 0.040364909702612896, -0.0043332841254221733, 0.016478905380819909, 0.0086665682508443465, -0.032957810761639818, 0.017333136501688703, -0.065915621523279663, -0.01061433501778679, 0.040364909702612896]}
    - {mu0: 0, rank: 3, ndensity: 2, num_ms_combs: 8, mus: [0, 0, 0], ns: [1, 1, 5], ls: [2, 3, 1], ms_combs: [0, 0, 0, 0, 1, -1, 1, -2, 1, 1, -1, 0, 1, 0, -1, 2, -3, 1, 2, -2, 0, 2, -1, -1], ctildes: [-0.0085732582401837135, -0.017398653124402835, 0.014000072081040905, 0.028411881577644814, -0.01807401533852495, -0.036679581394878563, 0.016165890769326268, 0.032807214954074015, -0.0098995459056044847, -0.020090234129821791, 0.022136057591311348, 0.044923129198167863, -0.012780258809140662, -0.02593638073540255, 0.0057155054934558067, 0.011599102082935219]}
    - {mu0: 0, rank: 3, ndensity: 2, num_ms_combs: 4, mus: [0, 0, 0], ns: [1, 1, 5], ls: [3, 3, 0], ms_combs: [0, 0, 0, 1, -1, 0, 2, -2, 0, 3, -3, 0], ctildes: [-0.0045568629348206697, 0.011363784840449248, 0.0091137258696413412, -0.0227275696808985, -0.0091137258696413394, 0.022727569680898497, 0.0091137258696413412, -0.0227275696808985]}
    - {mu0: 0, rank: 3, ndensity: 2, num_ms_combs: 1, mus: [0, 0, 0], ns: [1, 1, 6], ls: [0, 0, 0], ms_combs: [0, 0, 0], ctildes: [-0.047004153693683215, -0.0944995461563954]}
    - {mu0: 0, rank: 3, ndensity: 2, num_ms_combs: 2, mus: [0, 0, 0], ns: [1, 1, 6], ls: [0, 1, 1], ms_combs: [0, 0, 0, 0, 1, -1], ctildes: [-0.10006193414165776, -0.023029600390859575, 0.20012386828331546, 0.046059200781719142]}
    - {mu0: 0, rank: 3, ndensity: 2, num_ms_combs: 3, mus: [0, 0, 0], ns: [1, 1, 6], ls: [0, 2, 2], ms_combs: [0, 0, 0, 0, 1, -1, 0, 2, -2], ctildes: [-0.0055309022456184291, -0.046791235151700694, 0.01106180449123686, 0.093582470303401402, -0.011061804491236862, -0.09358247030340143]}
    - {mu0: 0, rank: 3, ndensity: 2, num_ms_combs: 2, mus: [0, 0, 0], ns: [1, 1, 6], ls: [1, 1, 0], ms_combs: [0, 0, 0, 1, -1, 0], ctildes: [0.027915660240480922, -0.028164597801379039, -0.05583132048096183, 0.056329195602758064]}
    - {mu0: 0, rank: 3, ndensity: 2, num_ms_combs: 4, mus: [0, 0, 0], ns: [1, 1, 6], ls: [1, 1, 2], ms_combs: [-1, 1, 0, 0, 0, 0, 0, 1, -1, 1, 1, -2], ctildes: [0.0036725315536472263, -0.044530206630587509, 0.0036725315536472259, -0.044530206630587502, -0.012722022486633726, 0.15425716071143616, 0.0089958283707064525, -0.1090762843856396]}
    - {mu0: 0, rank: 3, ndensity: 2, num_ms_combs: 5, mus: [0, 0, 0], ns: [1, 1, 6], ls: [1, 2, 1], ms_combs: [0, 0, 0, 0, 1, -1, 1, -2, 1, 1, -1, 0, 1, 0, -1], ctildes: [-0.03606134561397431, 0.0095765783410048707, 0.062460082792704603, -0.016587120249284108, -0.088331896192389223, 0.023457730417250976, 0.062460082792704603, -0.016587120249284108, -0.036061345613974304, 0.0095765783410048707]}
    - {mu0: 0, rank: 3, ndensity: 2, num_ms_combs: 3, mus: [0, 0, 0], ns: [1, 1, 6], ls: [2, 2, 0], ms_combs: [0, 0, 0, 1, -1, 0, 2, -2, 0], ctildes: [0.0011271868787792834, -0.015589570992734563, -0.0022543737575585671, 0.03117914198546913, 0.0022543737575585676, -0.031179141985469137]}
    - {mu0: 0, rank: 3, ndensity: 2, num_ms_combs: 1, mus: [0, 0, 0], ns: [1, 1, 7], ls: [0, 0, 0], ms_combs: [0, 0, 0], ctildes: [-0.0036781057642211088, -0.030404503586788315]}
    - {mu0: 0, rank: 3, ndensity: 2, num_ms_combs: 2, mus: [0, 0, 0], ns: [1, 1, 7], ls: [0, 1, 1], ms_combs: [0, 0, 0, 0, 1, -1], ctildes: [0.064459550345888517, -0.0043164192451559278, -0.12891910069177703, 0.0086328384903118539]}
    - {mu0: 0, rank: 3, ndensity: 2, num_ms_combs: 3, mus: [0, 0, 0], ns: [1, 1, 7], ls: [0, 2, 2], ms_combs: [0, 0, 0, 0, 1, -1, 0, 2, -2], ctildes: [0.025322188302396745, 0.074971272346558593, -0.050644376604793498, -0.14994254469311719, 0.050644376604793512, 0.14994254469311724]}
    - {mu0: 0, rank: 3, ndensity: 2, num_ms_combs: 2, mus: [0, 0, 0], ns: [1, 1, 7], ls: [1, 1, 0], ms_combs: [0, 0, 0, 1, -1, 0], ctildes: [0.011387686676487385, -0.075244033127911225, -0.022775373352974762, 0.15048806625582242]}
    - {mu0: 0, rank: 3, ndensity: 2, num_ms_combs: 4, mus: [0, 0, 0], ns: [1, 1, 7], ls: [1, 1, 2], ms_combs: [-1, 1, 0, 0, 0, 0, 0, 1, -1, 1, 1, -2], ctildes: [0.011085954654305473, -0.021058232533284663, 0.011085954654305471, -0.021058232533284659, -0.038402873423323498, 0.072947857330497815, 0.027154932214680697, -0.051581924591423814]}
    - {mu0: 0, rank: 3, ndensity: 2, num_ms_combs: 5, mus: [0, 0, 0], ns: [1, 1, 7], ls: [1, 2, 1], ms_combs: [0, 0, 0, 0, 1, -1, 1, -2, 1, 1, -1, 0, 1, 0, -1], ctildes: [0.036026195616110021, -0.016154852897475876, -0.062399201210517716, 0.027981026007229508, 0.088245796633161788, -0.039571146468538258, -0.062399201210517716, 0.027981026007229508, 0.036026195616110014, -0.016154852897475872]}
    - {mu0: 0, rank: 3, ndensity: 2, num_ms_combs: 3, mus: [0, 0, 0], ns: [1, 1, 7], ls: [2, 2, 0], ms_combs: [0, 0, 0, 1, -1, 0, 2, -2, 0], ctildes: [0.00082814212561366739, 0.0095012300166359316, -0.001656284251227335, -0.019002460033271867, 0.0016562842512273354, 0.01900246003327187]}
    - {mu0: 0, rank: 3, ndensity: 2, num_ms_combs: 1, mus: [0, 0, 0], ns: [1, 1, 8], ls: [0, 0, 0], ms_combs: [0, 0, 0], ctildes: [-0.047009113264355119, -0.20443637728120909]}
    - {mu0: 0, rank: 3, ndensity: 2, num_ms_combs: 2, mus: [0, 0, 0], ns: [1, 1, 8], ls: [0, 1, 1], ms_combs: [0, 0, 0, 0, 1, -1], ctildes: [-0.0048836914353080126, 0.015616903496632077, 0.0097673828706160235, -0.031233806993264151]}
    - {mu0: 0, rank: 3, ndensity: 2, num_ms_combs: 2, mus: [0, 0, 0], ns: [1, 1, 8], ls: [1, 1, 0], ms_combs: [0, 0, 0, 1, -1, 0], ctildes: [0.015485842992215178, -0.015589574970709542, -0.030971685984430349, 0.031179149941419081]}
    - {mu0: 0, rank: 3, ndensity: 2, num_ms_combs: 1, mus: [0, 0, 0], ns: [1, 1, 9], ls: [0, 0, 0], ms_combs: [0, 0, 0], ctildes: [0.022569522521837831, 0.20013666607766811]}
    - {mu0: 0, rank: 3, ndensity: 2, num_ms_combs: 2, mus: [0, 0, 0], ns: [1, 1, 9], ls: [0, 1, 1], ms_combs: [0, 0, 0, 0, 1, -1], ctildes: [0.0095303293551533656, -0.063580341420651332, -0.019060658710306728, 0.12716068284130264]}
    - {mu0: 0, rank: 3, ndensity: 2, num_ms_combs: 2, mus: [0, 0, 0], ns: [1, 1, 9], ls: [1, 1, 0], ms_combs: [0, 0, 0, 1, -1, 0], ctildes: [-0.0073973394810342655, 0.030678273803419517, 0.014794678962068528, -0.061356547606839028]}
    - {mu0: 0, rank: 3, ndensity: 2, num_ms_combs: 1, mus: [0, 0, 0], ns: [1, 1, 10], ls: [0, 0, 0], ms_combs: [0, 0, 0], ctildes: [-0.0078225235462388819, -0.085285196380035733]}
    - {mu0: 0, rank: 3, ndensity: 2, num_ms_combs: 1, mus: [0, 0, 0], ns: [1, 2, 2], ls: [0, 0, 0], ms_combs: [0, 0, 0], ctildes: [0.18110648362720289, 0.096175287111863184]}
    - {mu0: 0, rank: 3, ndensity: 2, num_ms_combs: 2, mus: [0, 0, 0], ns: [1, 2, 2], ls: [0, 1, 1], ms_combs: [0, 0, 0, 0, 1, -1], ctildes: [-0.043611355337806051, -0.13160849716149833, 0.087222710675612089, 0.26321699432299661]}
    - {mu0: 0, rank: 3, ndensity: 2, num_ms_combs: 3, mus: [0, 0, 0], ns: [1, 2, 2], ls: [0, 2, 2], ms_combs: [0, 0, 0, 0, 1, -1, 0, 2, -2], ctildes: [-0.023250364321825003, -0.21062420192877643, 0.046500728643650013, 0.42124840385755291, -0.046500728643650027, -0.42124840385755302]}
    - {mu0: 0, rank: 3, ndensity: 2, num_ms_combs: 4, mus: [0, 0, 0], ns: [1, 2, 2], ls: [0, 3, 3], ms_combs: [0, 0, 0, 0, 1, -1, 0, 2, -2, 0, 3, -3], ctildes: [0.016385439806108966, -0.029396569157385789, -0.032770879612217939, 0.058793138314771586, 0.032770879612217932, -0.058793138314771579, -0.032770879612217939, 0.058793138314771586]}
    - {mu0: 0, rank: 3, ndensity: 2, num_ms_combs: 2, mus: [0, 0, 0], ns: [1, 2, 2], ls: [1, 0, 1], ms_combs: [0, 0, 0, 1, 0, -1], ctildes: [-0.086036651284912266, -0.097369135104090149, 0.1720733025698245, 0.19473827020818027]}
    - {mu0: 0, rank: 3, ndensity: 2, num_ms_combs: 5, mus: [0, 0, 0], ns: [1, 2, 2], ls: [1, 1, 2], ms_combs: [0, 0, 0, 0, 1, -1, 1, -1, 0, 1, 0, -1, 1, 1, -2], ctildes: [0.11876326584848958, -0.019047525837026943, -0.2057040105223937, 0.032991282508211581, 0.1187632658484896, -0.019047525837026947, -0.2057040105223937, 0.032991282508211581, 0.29090940151530709, -0.046656719163195089]}
    - {mu0: 0, rank: 3, ndensity: 2, num_ms_combs: 8, mus: [0, 0, 0], ns: [1, 2, 2], ls: [1, 2, 3], ms_combs: [0, 0, 0, 0, 1, -1, 0, 2, -2, 1, -2, 1, 1, -1, 0, 1, 0, -1, 1, 1, -2, 1, 2, -3], ctildes: [0.0081452364824795044, -0.023141239604602227, -0.01535880520301152, 0.043635539865271834, 0.012142201645090297, -0.03449692322633395, -0.0054301576549863366, 0.015427493069734819, 0.0094053089515454061, -0.026721201830197452, -0.013301115477584589, 0.037789486031174012, 0.017171666243555601, -0.048786016686824897, -0.021030910165042802, 0.059750423732813293]}
    - {mu0: 0, rank: 3, ndensity: 2, num_ms_combs: 3, mus: [0, 0, 0], ns: [1, 2, 2], ls: [2, 0, 2], ms_combs: [0, 0, 0, 1, 0, -1, 2, 0, -2], ctildes: [0.12065312307612359, -0.19336732021865113, -0.24130624615224722, 0.38673464043730232, 0.24130624615224727, -0.38673464043730238]}
    - {mu0: 0, rank: 3, ndensity: 2, num_ms_combs: 4, mus: [0, 0, 0], ns: [1, 2, 2], ls: [2, 1, 1], ms_combs: [0, -1, 1, 0, 0, 0, 1, -1, 0, 2, -1, -1], ctildes: [-0.017417416397878225, 0.062739192727148604, -0.017417416397878228, 0.062739192727148604, 0.060335700275416786, -0.21733493885855437, -0.042663782812386246, 0.15367900905564746]}
    - {mu0: 0, rank: 3, ndensity: 2, num_ms_combs: 8, mus: [0, 0, 0], ns: [1, 2, 2], ls: [2, 1, 3], ms_combs: [0, 0, 0, 0, 1, -1, 1, -1, 0, 1, 0, -1, 1, 1, -2, 2, -1, -1, 2, 0, -2, 2, 1, -3], ctildes: [0.0075904213772918609, -0.030047592357261697, -0.012395106204719052, 0.049067512849628507, 0.0087646636508842916, -0.03469597107193037, -0.014312635807857091, 0.056658283504396875, 0.016002013301783032, -0.063345886702143181, -0.0050602809181945737, 0.020031728238174465, 0.011315132118328117, -0.044792306047360196, -0.019598383723298762, 0.077582549862202546]}
    - {mu0: 0, rank: 3, ndensity: 2, num_ms_combs: 7, mus: [0, 0, 0], ns: [1, 2, 2], ls: [2, 2, 2], ms_combs: [0, -2, 2, 0, -1, 1, 0, 0, 0, 1, -2, 1, 1, -1, 0, 2, -2, 0, 2, -1, -1], ctildes: [0.083554604029369706, -0.024468722038584682, 0.041777302014684825, -0.012234361019292334, -0.041777302014684825, 0.012234361019292334, -0.20466614553225101, 0.059935883652525855, 0.08355460402936965, -0.024468722038584668, 0.16710920805873933, -0.048937444077169351, -0.10233307276612551, 0.029967941826262928]}
    - {mu0: 0, rank: 3, ndensity: 2, num_ms_combs: 9, mus: [0, 0, 0], ns: [1, 2, 2], ls: [2, 3, 3], ms_combs: [0, -3, 3, 0, -1, 1, 0, 0, 0, 1, -3, 2, 1, -2, 1, 1, -1, 0, 2, -3, 1, 2, -2, 0, 2, -1, -1], ctildes: [-0.0013523323166195645, 0.021441351977752342, 0.00081139938997173836, -0.012864811186651399, -0.00054093292664782557, 0.0085765407911009336, 0.0027046646332391285, -0.042882703955504677, -0.0020950242163222674, 0.033216799652002513, 0.00076499468119952557, -0.012129060305021016, -0.0017105801095879196, 0.027121403345221326, 0.0024191255905048909, -0.038355456441403021, -0.0013250096553575343, 0.021008148696363266]}
    - {mu0: 0, rank: 3, ndensity: 2, num_ms_combs: 4, mus: [0, 0, 0], ns: [1, 2, 2], ls: [3, 0, 3], ms_combs: [0, 0, 0, 1, 0, -1, 2, 0, -2, 3, 0, -3], ctildes: [0.011798185914193937, 0.043356649020569536, -0.023596371828387877, -0.086713298041139086, 0.023596371828387874, 0.086713298041139072, -0.023596371828387877, -0.086713298041139086]}
    - {mu0: 0, rank: 3, ndensity: 2, num_ms_combs: 8, mus: [0, 0, 0], ns: [1, 2, 2], ls: [3, 1, 2], ms_combs: [0, 0, 0, 0, 1, -1, 1, -1, 0, 1, 0, -1, 1, 1, -2, 2, -1, -1, 2, 0, -2, 3, -1, -2], ctildes: [0.019314113721433851, -0.018560183782594067, 0.022302017512457764, -0.021431454206179232, -0.031539815634400045, 0.030308653199756584, -0.036419042093424066, 0.034997418167308954, -0.012876075814289241, 0.012373455855062719, 0.040717726898161229, -0.03912830302954446, 0.028791780804191706, -0.027667888408513031, -0.049868827193246333, 0.047922188461690565]}
    - {mu0: 0, rank: 3, ndensity: 2, num_ms_combs: 14, mus: [0, 0, 0], ns: [1, 2, 2], ls: [3, 2, 3], ms_combs: [0, 0, 0, 0, 1, -1, 0, 2, -2, 1, -2, 1, 1, -1, 0, 1, 0, -1, 1, 1, -2, 1, 2, -3, 2, -2, 0, 2, -1, -1, 2, 1, -3, 3, -2, -1, 3, -1, -2, 3, 0, -3], ctildes: [0.0036139125928504184, -0.052778522207257483, -0.0025554221010199905, 0.037320050953756574, -0.0080809542223560567, 0.11801636340740999, 0.0088522418275020602, -0.1292804487859314, -0.0025554221010199883, 0.037320050953756546, -0.0054208688892756268, 0.079167783310886225, 0.0069983116433794696, -0.1022051687730733, 0.0057140975290860315, -0.083450170856355532, -0.008080954222356055, 0.11801636340740998, 0.0069983116433794687, -0.10220516877307328, -0.0090347814821260478, 0.13194630551814376, 0.0057140975290860315, -0.083450170856355532, -0.0090347814821260461, 0.13194630551814371, 0.0090347814821260478, -0.13194630551814376]}
    - {mu0: 0, rank: 3, ndensity: 2, num_ms_combs: 1, mus: [0, 0, 0], ns: [1, 2, 3], ls: [0, 0, 0], ms_combs: [0, 0, 0], ctildes: [0.11096764956159548, 0.010661915421833573]}
    - {mu0: 0, rank: 3, ndensity: 2, num_ms_combs: 2, mus: [0, 0, 0], ns: [1, 2, 3], ls: [0, 1, 1], ms_combs: [0, 0, 0, 0, 1, -1], ctildes: [0.12204798768499399, -0.15828008554768216, -0.24409597536998792, 0.31656017109536427]}
    - {mu0: 0, rank: 3, ndensity: 2, num_ms_combs: 3, mus: [0, 0, 0], ns: [1, 2, 3], ls: [0, 2, 2], ms_combs: [0, 0, 0, 0, 1, -1, 0, 2, -2], ctildes: [-0.011548624184753624, 0.12199076711504002, 0.023097248369507248, -0.24398153423008007, -0.023097248369507255, 0.24398153423008012]}
    - {mu0: 0, rank: 3, ndensity: 2, num_ms_combs: 4, mus: [0, 0, 0], ns: [1, 2, 3], ls: [0, 3, 3], ms_combs: [0, 0, 0, 0, 1, -1, 0, 2, -2, 0, 3, -3], ctildes: [-0.015442903897911855, 0.099707041709432911, 0.030885807795823714, -0.19941408341886585, -0.03088580779582371, 0.19941408341886582, 0.030885807795823714, -0.19941408341886585]}
    - {mu0: 0, rank: 3, ndensity: 2, num_ms_combs: 2, mus: [0, 0, 0], ns: [1, 2, 3], ls: [1, 0, 1], ms_combs: [0, 0, 0, 1, 0, -1], ctildes: [-0.12241857671901815, 0.010442272173907974, 0.24483715343803625, -0.020884544347815944]}
    - {mu0: 0, rank: 3, ndensity: 2, num_ms_combs: 2, mus: [0, 0, 0], ns: [1, 2, 3], ls: [1, 1, 0], ms_combs: [0, 0, 0, 1, -1, 0], ctildes: [-0.083321708393419763, -0.11045594100423191, 0.1666434167868395, 0.22091188200846379]}
    - {mu0: 0, rank: 3, ndensity: 2, num_ms_combs: 5, mus: [0, 0, 0], ns: [1, 2, 3], ls: [1, 1, 2], ms_combs: [0, 0, 0, 0, 1, -1, 1, -1, 0, 1, 0, -1, 1, 1, -2], ctildes: [0.023584369482917127, 0.18296599775941086, -0.040849326208889404, -0.31690640417683308, 0.023584369482917131, 0.18296599775941089, -0.040849326208889404, -0.31690640417683308, 0.057769671138414129, 0.44817333478976706]}
    - {mu0: 0, rank: 3, ndensity: 2, num_ms_combs: 5, mus: [0, 0, 0], ns: [1, 2, 3], ls: [1, 2, 1], ms_combs: [0, 0, 0, 0, 1, -1, 1, -2, 1, 1, -1, 0, 1, 0, -1], ctildes: [-0.037448199736683466, -0.088327410271381857, 0.064862184595923217, 0.15298756229101448, -0.091728981140701854, -0.21635708546635135, 0.064862184595923217, 0.15298756229101448, -0.037448199736683459, -0.088327410271381843]}
    - {mu0: 0, rank: 3, ndensity: 2, num_ms_combs: 8, mus: [0, 0, 0], ns: [1, 2, 3], ls: [1, 2, 3], ms_combs: [0, 0, 0, 0, 1, -1, 0, 2, -2, 1, -2, 1, 1, -1, 0, 1, 0, -1, 1, 1, -2, 1, 2, -3], ctildes: [-0.0078593033931855915, 0.051795262230913262, 0.014819644599263935, -0.097666083084837971, -0.011715957761971825, 0.077211818173832963, 0.0052395355954570613, -0.034530174820608842, -0.0090751418593972809, 0.059808017183530064, 0.012834188698019425, -0.084581309039591338, -0.016568866363170887, 0.10919400043692, 0.02029263410306616, -0.13373479202184874]}
    - {mu0: 0, rank: 3, ndensity: 2, num_ms_combs: 8, mus: [0, 0, 0], ns: [1, 2, 3], ls: [1, 3, 2], ms_combs: [0, 0, 0, 0, 1, -1, 0, 2, -2, 1, -3, 2, 1, -2, 1, 1, -1, 0, 1, 0, -1, 1, 1, -2], ctildes: [-0.0027458036220991701, 0.0081912144811160555, 0.0051775369626477557, -0.015445502148668298, -0.0040932023679192617, 0.01221074159870412, 0.0070896344668973967, -0.021149624847050349, -0.0057886623022490851, 0.017268596375520688, 0.0044838785386858782, -0.013376197234953877, -0.0031705809207216123, 0.0094583997713246337, 0.0018305357480661146, -0.0054608096540773726]}
    - {mu0: 0, rank: 3, ndensity: 2, num_ms_combs: 3, mus: [0, 0, 0], ns: [1, 2, 3], ls: [2, 0, 2], ms_combs: [0, 0, 0, 1, 0, -1, 2, 0, -2], ctildes: [0.022448118159588512, -0.020803629469896903, -0.044896236319177024, 0.041607258939793806, 0.044896236319177038, -0.04160725893979382]}
    - {mu0: 0, rank: 3, ndensity: 2, num_ms_combs: 5, mus: [0, 0, 0], ns: [1, 2, 3], ls: [2, 1, 1], ms_combs: [0, 0, 0, 0, 1, -1, 1, -1, 0, 1, 0, -1, 2, -1, -1], ctildes: [-0.036523587976129784, 0.11688631911633474, -0.036523587976129777, 0.11688631911633472, 0.063260710049368535, -0.20245304341920109, 0.063260710049368535, -0.20245304341920109, -0.089464154117168918, 0.28631183974714325]}
    - {mu0: 0, rank: 3, ndensity: 2, num_ms_combs: 8, mus: [0, 0, 0], ns: [1, 2, 3], ls: [2, 1, 3], ms_combs: [0, 0, 0, 0, 1, -1, 1, -1, 0, 1, 0, -1, 1, 1, -2, 2, -1, -1, 2, 0, -2, 2, 1, -3], ctildes: [0.0011940039077280762, -0.049901913023180214, -0.0019498002165486369, 0.081489482730358831, 0.0013787169550805399, -0.057621765834020774, -0.0022514353597806922, 0.094095949580992058, 0.0025171812557081611, -0.1052024698352455, -0.00079600260515205084, 0.033267942015453474, 0.0017799159353869098, -0.074389379818075321, -0.0030829048332916111, 0.12884618538844531]}
    - {mu0: 0, rank: 3, ndensity: 2, num_ms_combs: 3, mus: [0, 0, 0], ns: [1, 2, 3], ls: [2, 2, 0], ms_combs: [0, 0, 0, 1, -1, 0, 2, -2, 0], ctildes: [-0.14986636464577766, -0.045307343183076582, 0.29973272929155537, 0.090614686366153177, -0.29973272929155542, -0.090614686366153205]}
    - {mu0: 0, rank: 3, ndensity: 2, num_ms_combs: 10, mus: [0, 0, 0], ns: [1, 2, 3], ls: [2, 2, 2], ms_combs: [0, 0, 0, 0, 1, -1, 0, 2, -2, 1, -2, 1, 1, -1, 0, 1, 0, -1, 1, 1, -2, 2, -2, 0, 2, -1, -1, 2, 0, -2], ctildes: [-0.011029909742124998, 0.074742999746383473, 0.011029909742124998, -0.074742999746383473, 0.022059819484250006, -0.14948599949276703, -0.027017650777159438, 0.18308221122361207, 0.011029909742124998, -0.074742999746383473, 0.011029909742124998, -0.074742999746383473, -0.027017650777159438, 0.18308221122361207, 0.022059819484249996, -0.14948599949276695, -0.027017650777159438, 0.18308221122361207, 0.022059819484250006, -0.14948599949276703]}
    - {mu0: 0, rank: 3, ndensity: 2, num_ms_combs: 8, mus: [0, 0, 0], ns: [1, 2, 3], ls: [2, 3, 1], ms_combs: [0, 0, 0, 0, 1, -1, 1, -2, 1, 1, -1, 0, 1, 0, -1, 2, -3, 1, 2, -2, 0, 2, -1, -1], ctildes: [-0.0090361862741205126, 0.068477996856561474, 0.014756030394890887, -0.11182410060432398, -0.019049953325180956, 0.14436429311505652, 0.017038796241321114, -0.12912334917158855, -0.010434089155622155, 0.079071579837404191, 0.023331332635264525, -0.17680942760473758, -0.01347035117752267, 0.10208097062285885, 0.0060241241827470064, -0.045651997904374297]}
    - {mu0: 0, rank: 3, ndensity: 2, num_ms_combs: 4, mus: [0, 0, 0], ns: [1, 2, 3], ls: [3, 0, 3], ms_combs: [0, 0, 0, 1, 0, -1, 2, 0, -2, 3, 0, -3], ctildes: [-0.0041176419539634534, -0.026759421899897783, 0.0082352839079269085, 0.053518843799795573, -0.0082352839079269068, -0.053518843799795567, 0.0082352839079269085, 0.053518843799795573]}
    - {mu0: 0, rank: 3, ndensity: 2, num_ms_combs: 8, mus: [0, 0, 0], ns: [1, 2, 3], ls: [3, 1, 2], ms_combs: [0, 0, 0, 0, 1, -1, 1, -1, 0, 1, 0, -1, 1, 1, -2, 2, -1, -1, 2, 0, -2, 3, -1, -2], ctildes: [-0.0076084115288263983, 0.014268091127061996, -0.008785436888546749, 0.016475372506062715, 0.012424483999155697, -0.023299695243222698, 0.014346558362909481, -0.026904170641421733, 0.0050722743525509345, -0.0095120607513746683, -0.016039939871316848, 0.030079777216236558, -0.011341950252832626, 0.02126961444618149, 0.019644834094824776, -0.036840052878187299]}
    - {mu0: 0, rank: 3, ndensity: 2, num_ms_combs: 8, mus: [0, 0, 0], ns: [1, 2, 3], ls: [3, 2, 1], ms_combs: [0, 0, 0, 0, 1, -1, 1, -2, 1, 1, -1, 0, 1, 0, -1, 2, -2, 0, 2, -1, -1, 3, -2, -1], ctildes: [0.0067007385342708068, -0.060852386558107076, 0.0077373463930610932, -0.070266283520308531, -0.0044671590228472025, 0.040568257705404696, -0.012635033750775718, 0.11474436049766032, -0.010942260205845548, 0.099371531131973431, 0.00998887124138788, -0.090713381958014538, 0.014126397182369318, -0.12828809505375502, -0.017301232500347416, 0.15712018647768314]}
    - {mu0: 0, rank: 3, ndensity: 2, num_ms_combs: 4, mus: [0, 0, 0], ns: [1, 2, 3], ls: [3, 3, 0], ms_combs: [0, 0, 0, 1, -1, 0, 2, -2, 0, 3, -3, 0], ctildes: [-0.0095794513938754558, -0.035788373457727472, 0.019158902787750915, 0.071576746915454945, -0.019158902787750912, -0.071576746915454945, 0.019158902787750915, 0.071576746915454945]}
    - {mu0: 0, rank: 3, ndensity: 2, num_ms_combs: 1, mus: [0, 0, 0], ns: [1, 2, 4], ls: [0, 0, 0], ms_combs: [0, 0, 0], ctildes: [-0.14902977477093993, -0.12118545677882028]}
    - {mu0: 0, rank: 3, ndensity: 2, num_ms_combs: 2, mus: [0, 0, 0], ns: [1, 2, 4], ls: [0, 1, 1], ms_combs: [0, 0, 0, 0, 1, -1], ctildes: [0.046434331720064573, 0.014333153826846017, -0.092868663440129118, -0.028666307653692026]}
    - {mu0: 0, rank: 3, ndensity: 2, num_ms_combs: 3, mus: [0, 0, 0], ns: [1, 2, 4], ls: [0, 2, 2], ms_combs: [0, 0, 0, 0, 1, -1, 0, 2, -2], ctildes: [-0.035513712967795506, 0.011033607794650726, 0.071027425935591026, -0.022067215589301456, -0.07102742593559104, 0.022067215589301463]}
    - {mu0: 0, rank: 3, ndensity: 2, num_ms_combs: 4, mus: [0, 0, 0], ns: [1, 2, 4], ls: [0, 3, 3], ms_combs: [0, 0, 0, 0, 1, -1, 0, 2, -2, 0, 3, -3], ctildes: [0.0039771261542815356, -0.0021971790912705068, -0.0079542523085630729, 0.0043943581825410137, 0.0079542523085630711, -0.0043943581825410137, -0.0079542523085630729, 0.0043943581825410137]}
    - {mu0: 0, rank: 3, ndensity: 2, num_ms_combs: 2, mus: [0, 0, 0], ns: [1, 2, 4], ls: [1, 0, 1], ms_combs: [0, 0, 0, 1, 0, -1], ctildes: [-0.066559680211813854, 0.057131305701345378, 0.13311936042362768, -0.11426261140269073]}
    - {mu0: 0, rank: 3, ndensity: 2, num_ms_combs: 2, mus: [0, 0, 0], ns: [1, 2, 4], ls: [1, 1, 0], ms_combs: [0, 0, 0, 1, -1, 0], ctildes: [-0.088769790054629621, -0.12894817618171195, 0.17753958010925922, 0.25789635236342384]}
    - {mu0: 0, rank: 3, ndensity: 2, num_ms_combs: 5, mus: [0, 0, 0], ns: [1, 2, 4], ls: [1, 1, 2], ms_combs: [0, 0, 0, 0, 1, -1, 1, -1, 0, 1, 0, -1, 1, 1, -2], ctildes: [0.017622382874811847, -0.030230728102826076, -0.030522862489605819, 0.052361157023895072, 0.017622382874811847, -0.030230728102826083, -0.030522862489605819, 0.052361157023895072, 0.043165846095249566, -0.074049858404739669]}
    - {mu0: 0, rank: 3, ndensity: 2, num_ms_combs: 5, mus: [0, 0, 0], ns: [1, 2, 4], ls: [1, 2, 1], ms_combs: [0, 0, 0, 0, 1, -1, 1, -2, 1, 1, -1, 0, 1, 0, -1], ctildes: [0.0024289378734724835, 0.022185583887934176, -0.0042070438052826467, -0.038426558489483467, 0.0059496584069284328, 0.054343360171150504, -0.0042070438052826467, -0.038426558489483467, 0.0024289378734724831, 0.022185583887934172]}
    - {mu0: 0, rank: 3, ndensity: 2, num_ms_combs: 8, mus: [0, 0, 0], ns: [1, 2, 4], ls: [1, 2, 3], ms_combs: [0, 0, 0, 0, 1, -1, 0, 2, -2, 1, -2, 1, 1, -1, 0, 1, 0, -1, 1, 1, -2, 1, 2, -3], ctildes: [-0.001955601890383434, 0.032839842562372178, 0.0036875182879769538, -0.061923400983871939, -0.0029152391758829666, 0.0489547468932367, 0.001303734593588956, -0.021893228374914787, -0.002258134555681233, 0.037920183887061011, 0.0031934845143077434, -0.053627238340763397, -0.0041227707800950558, 0.069232466998957479, 0.005049342368844521, -0.084792108890760637]}
    - {mu0: 0, rank: 3, ndensity: 2, num_ms_combs: 8, mus: [0, 0, 0], ns: [1, 2, 4], ls: [1, 3, 2], ms_combs: [0, 0, 0, 0, 1, -1, 0, 2, -2, 1, -3, 2, 1, -2, 1, 1, -1, 0, 1, 0, -1, 1, 1, -2], ctildes: [-0.00017995240396626662, 0.043789842983796678, 0.00033932150702764839, -0.082570919789164796, -0.00026825720532205015, 0.065278043757207777, 0.00046463510911422701, -0.11306488840618821, -0.00037937297797074719, 0.092317094806627545, 0.00029386104513636342, -0.071508514151263941, -0.00020779113774248872, 0.050564155268932931, 0.00011996826931084449, -0.029193228655864465]}
    - {mu0: 0, rank: 3, ndensity: 2, num_ms_combs: 3, mus: [0, 0, 0], ns: [1, 2, 4], ls: [2, 0, 2], ms_combs: [0, 0, 0, 1, 0, -1, 2, 0, -2], ctildes: [-0.054767173828546158, -0.065618931538102568, 0.10953434765709233, 0.13123786307620514, -0.10953434765709236, -0.13123786307620519]}
    - {mu0: 0, rank: 3, ndensity: 2, num_ms_combs: 5, mus: [0, 0, 0], ns: [1, 2, 4], ls: [2, 1, 1], ms_combs: [0, 0, 0, 0, 1, -1, 1, -1, 0, 1, 0, -1, 2, -1, -1], ctildes: [0.028456605110440542, 0.14572031980599251, 0.028456605110440538, 0.14572031980599248, -0.049288285862207189, -0.25239499759916439, -0.049288285862207189, -0.25239499759916439, 0.069704162332455466, 0.35694042867986303]}
    - {mu0: 0, rank: 3, ndensity: 2, num_ms_combs: 8, mus: [0, 0, 0], ns: [1, 2, 4], ls: [2, 1, 3], ms_combs: [0, 0, 0, 0, 1, -1, 1, -1, 0, 1, 0, -1, 1, 1, -2, 2, -1, -1, 2, 0, -2, 2, 1, -3], ctildes: [0.0064668980304736726, -0.048076737765407822, -0.010560400262180001, 0.078508984015228753, 0.007467330637431672, -0.055514234981234506, -0.012194099868239635, 0.090654366109992696, 0.013633418114902521, -0.10135466253954838, -0.0043112653536491151, 0.032051158510271884, 0.0096402823997990914, -0.071668569186588801, -0.016697458915764053, 0.12413360313693712]}
